0.97
0.16
-0.27
-0.05
0.53
0.01
-0.24
0.38
0.87
0.7
0.59
-0.28
-0.9
0.78
0.1
0.19
0.92
-0.55
-0.92
0.95
-0.34
-0.44
-0.74
-0.36
0.6
-0.55
-0.68
0.15
-0.38
-0.53
0.04
0.94
0.06
0.08
-0.76
-0.04
0.03
-0.01
0.69
0.42
-0.59
-0.04
-0.65
-0.78
0.69
0.33
0
0.619529
0.146836
-0.961394
-0.839877
-0.311169
-0.450764
-0.017396
0.469094
-0.0428556
-0.310469
0.02
0.63
-0.93
0.65
0.31
-0.67
-0.88
0.65
0.38
-0.18
0.01
0.8
0
0.4
-0.34
0.99
-0.3
-0.380118
-0.266979
0.520828
-0.400639
-0.801682
0.424106
-0.887734
0.81958
0.478157
-0.423135
-0.304903
0.738733
0.0747545
-0.341949
0.9
-0.88
0.04
-0.96
-0.44
-0.11
-0.95
-0.15
-0.78
-0.05
-0.59
0.32
0.439999
0.849999
-0.320001
-0.460001
0.809419
0.881239
-0.931234
-0.68205
-0.791625
0.48361
-0.357666
0.425608
-0.71804
0.257348
0.790806
-0.506356
-0.241982
-0.610993
0.56
-0.1
-0.97
0.26
0.35
-0.66
0.2
-0.99
0.8
-0.0100006
0.729999
-0.569995
0.329913
0.0946454
0.493815
-0.78365
-0.396216
-1.04873
-0.820547
0.463921
0.829973
-0.995787
0.764092
-0.493589
-0.283919
0.787913
-0.904671
-0.474065
-0.290755
0.166305
-0.22
-0.37
0.03
0.41
0.07
0.01
0.13
0.85
0.419999
-0.660001
0.110001
-0.760487
0.363852
-0.517268
-1.02004
0.806721
-0.963865
0.399169
-0.41363
0.072892
-0.484468
0.650077
-1.0074
0.507999
0.336148
-0.310586
-0.0420845
0.260958
0.92225
0.00947061
0.568649
-0.800984
0.5
0.2
0.47
0.48
0.92
-0.35
-0.310001
-0.505254
-0.933272
0.457594
0.0251039
-0.652967
-0.873279
-0.063847
-0.283851
-0.560842
-0.573566
-0.681334
-0.36628
0.118081
-1.00344
-0.883588
-0.815308
-0.767958
0.410066
-0.518492
-0.792087
0.753215
-0.671351
-0.970984
0.77
0.52
0.69
-0.84
0.05
-0.04
0.277482
-0.760659
-0.192404
0.083801
-0.614693
0.549833
0.429847
-0.165085
-0.61952
0.0278622
-0.124115
0.0947438
-1.00019
-0.236864
0.443202
-0.898027
0.850349
-0.170763
0.0992609
0.532644
0.147041
-0.631168
0.299631
0.39
0.5
0.51
0.03
-0.07
0.74
-0.766872
-0.850334
-0.883129
-0.617315
0.815307
-0.934655
-0.693244
-0.239581
0.0601407
0.65151
-0.560363
0.468398
-0.727945
0.218505
-1.01395
-0.755801
-0.308449
-0.514789
-0.347145
0.669675
-0.806243
-0.235883
-0.812791
0.47
0.01
-0.25
0
-0.54
0.04
-1.66048e-006
0.917129
0.388073
-0.652673
0.765307
0.159346
-0.543502
-0.58929
0.86757
-1.02093
-0.201389
0.971069
-1.01415
0.123679
-0.945869
0.371397
0.747089
-0.419968
-0.101927
-0.870951
0.00153208
0.203351
0.672048
-0.648078
0.8
0.44
0.04
0.08
-0.01
-0.69
0.599855
-0.0346609
-0.85965
0.555307
0.77622
0.76366
-0.638471
0.428831
0.149186
-0.813872
0.31641
0.238011
-0.567617
0.386341
-0.374663
-0.966559
-0.966196
-0.956296
0.78185
-0.904682
-0.476507
0.0474766
-0.702085
0.72563
0.92
-0.06
0.78
0.16
-0.13
-0.11
-0.414282
-0.178674
-0.855173
0.356737
0.777286
0.823875
0.1547
0.941296
0.791062
-0.304563
0.984994
-0.541986
-0.757444
0.24741
0.0562234
-0.760716
-0.745664
0.804139
-0.592172
0.202088
0.491236
-0.0982702
-0.57056
-0.574171
-0.64
-0.66
0.24
-0.18
0.5
-0.31
0.814774
-0.683515
0.287659
0.218058
-0.0310685
0.539288
0.636454
-0.893356
-0.369019
-0.483283
-0.100855
0.173023
0.905174
0.604698
-0.930972
-0.372144
-0.45166
0.466425
0.582517
0.957303
1.04689
0.309779
-0.582937
0.97829
-0.95
-0.56
0.16
0.75
0.6
-0.309217
0.0120151
-0.393409
0.0886399
0.849084
0.773583
-0.143169
-0.877812
0.685766
0.49189
0.46551
0.0788501
0.36838
0.483617
0.324729
-1.06873
-0.44752
0.703941
0.0955182
-0.161687
0.125159
0.457474
0.401484
1.07345
0.0813413
0.41
-0.36
0.65
-0.07
0.52092
0.310783
0.129848
-0.172852
-0.138322
-0.314106
-0.190972
-0.611351
-0.29096
0.676593
0.0810874
0.780478
-0.0232617
-0.225611
-0.564822
-0.327489
0.663963
0.52562
-0.717691
0.427986
-0.408167
0.2847
0.900201
-0.344251
-0.0983814
-0.732153
0.22
-0.43
-0.01
-0.99908
-0.329078
-0.360692
0.36836
0.121553
-1.07877
0.0156712
-0.54808
0.958213
-0.0636038
-0.576154
0.141038
0.230396
-0.701601
0.972932
0.115108
-1.0138
0.577292
-0.0264933
1.06087
0.170645
-0.788322
0.762129
-0.729426
0.563854
-0.603023
0.906024
-1
-0.81
-0.67908
0.080921
-0.390705
-0.546734
-0.619136
0.10755
0.827198
0.0491984
-0.973451
0.109877
0.265081
-0.0398213
-0.367933
0.0621049
0.445496
0.564367
0.314269
0.368522
0.906773
0.160957
0.565232
-0.142682
-0.559781
-0.15562
1.15177
-0.522384
-0.403775
0.113345
0.39
0.2
-0.93908
0.77092
-0.708725
0.780493
-0.364163
0.722007
-0.776994
0.0948815
-0.957333
0.780622
0.0386601
0.491968
0.596989
-0.447983
0.363771
0.800643
0.73232
0.023611
0.0727767
-0.515092
-0.253746
1.02364
0.765572
-0.0683592
0.957041
-0.635862
-0.580607
-0.546655
0.55
0.14
0.45102
-0.0102983
0.456452
0.264621
-0.62038
0.722274
0.382781
0.925301
-0.897471
0.198461
0.303207
-0.0402273
-0.0234674
-0.334698
-0.437984
-0.867972
-0.0959928
-0.615075
0.272453
-0.841353
-0.514886
-0.318804
0.511298
0.0937508
-0.107095
0.210852
-0.0514536
-0.648192
-0.07
-0.54
0.782501
-0.0925964
-0.987947
-0.544541
-0.679841
0.459054
0.878437
-1.04827
0.551761
0.380393
-0.891912
-0.247006
0.220538
-0.959232
-0.95923
0.700772
0.280616
0.292611
0.0493956
-0.447991
-0.372747
0.705637
-0.495729
0.257821
-0.0674277
-0.181009
-0.0535869
-0.817752
-0.01
-0.54
0.672893
0.906572
0.621721
1.0021
-0.42543
-0.745093
0.315989
-0.0395551
-0.915802
-0.917511
-0.919507
-0.0957814
-0.638977
-0.988883
0.431316
0.686976
-0.37303
0.699384
-0.375906
-0.611103
1.01921
1.1143
-0.00756135
0.17365
0.974884
0.993046
0.339308
1.00879
-0.96
-0.88
0.907078
0.0406655
0.256433
0.0527539
-0.786052
-0.289661
0.0395434
0.489715
-0.32311
0.0784899
0.322404
-0.466929
-0.582245
0.832423
0.622724
0.529501
-0.841562
0.324338
0.581311
0.637379
-0.616849
-0.53532
0.838923
1.06836
0.484178
0.303706
0.462258
-0.549982
0.29
-0.92
-0.253031
-0.364266
0.150718
1.05037
-0.139802
-0.724055
-0.780449
-0.0896128
-0.393859
-1.05219
-1.05585
0.60506
0.785142
0.815144
0.11526
0.11085
-0.659147
0.0408423
0.612737
-0.64415
0.909702
0.628169
0.896393
-0.730361
0.654149
-0.741914
1.09521
0.792793
0.32
0.24
-0.71509
-0.466326
-0.143912
-0.607764
-0.607614
-0.0515649
0.949944
-0.621098
0.663824
-0.0743917
-0.168514
0.0161824
-0.705818
0.874182
0.784182
-1.09585
-0.275813
-0.763927
-0.443437
0.199578
-0.384685
-0.20924
-0.283006
0.0616155
0.519903
-0.501698
0.728671
-0.943296
-0.96
-0.2
-0.214883
-0.455998
0.349883
-0.585919
0.416086
0.406345
1.07551
0.146013
-0.111995
-0.565611
0.582401
0.844499
0.34778
-0.00391971
0.316077
-0.942673
0.676928
-0.798431
0.181977
0.093106
-0.521344
1.04956
1.18944
-0.657532
0.622263
0.879069
0.0857603
0.329989
0.74
-0.01
-0.282849
-0.957811
0.559477
0.123402
-0.148898
0.872576
-0.0394252
-0.388153
-0.453981
0.281337
0.213741
0.668185
-0.641163
-1.04413
0.290727
-0.869802
-0.358966
-0.651829
0.322014
-0.395184
-0.69089
0.245598
-0.67259
-0.499024
-0.398089
0.494345
0.498868
-0.00990131
0.82
-0.37
-0.600004
0.554771
0.597354
-0.636009
-0.433503
0.642869
-0.00920086
-0.0171989
0.25708
-0.504627
0.0986882
0.681893
-0.8226
0.195892
0.577908
0.43938
0.357424
0.114417
-0.600393
0.217733
-0.26634
-0.57585
0.919989
0.255057
0.167374
0.584174
0.824774
-0.73
0.73
-0.53
0.62
0.420922
-0.45243
0.742736
0.4778
0.429737
-0.761227
0.457476
0.299796
-0.871218
0.264063
-0.181145
0.500664
0.102116
0.367055
0.464658
1.1771
-0.556404
0.162819
1.09983
-0.727818
-0.136176
0.61275
-0.493368
0.848298
0.510099
0.861333
0.27
-0.11
-0.91
0.34
0.79
-0.88
-0.08
-0.312163
0.625794
0.215443
0.257293
1.005
-0.855466
0.0905135
0.621492
-0.0695701
-0.496581
-0.859598
-0.899634
0.741695
0.441147
0.45588
0.471323
0.510215
-0.66
0.35
-0.26
0.77
0.32
-0.85
-0.12
-0.67
-0.83
-0.44
0.74
0.92
0.35
0.81
0.26
0.777211
0.34721
-0.602789
0.787211
-0.682789
-0.0927954
0.557207
-0.220004
0.96
0.61
0.67
0.79
-0.08
0.99
-0.84
0.95
-0.18
-0.13
-0.38
-0.89
0.55
0.49
-0.18
0.96
-0.29
-0.95
-0.72
-0.03
-0.08
0.24
-0.7
0.92
-0.12
0.55
-0.15
0.8
0.67
-0.2
-0.37
-0.16
0.76
-0.74
0.92
0.92
0.24
-0.9
-0.33
-0.09
0.98
-0.36
-0.99
-0.49
-0.87
-0.59
-0.33
-0.96
-0.44
-0.53
0.22
-0.5
-0.98
0.14
-0.5
-0.78
-0.21
0.26
-0.75
0.14
-0.15
-0.15
-0.94
0.918117
0.519743
0.751552
-0.814857
-0.66252
-0.781993
0.0192345
0.332999
-0.903672
-0.616724
-0.39
-0.63
0.14
-0.56
0.24
0.65
-0.2
-0.31
0.27
-0.44
0.07
-0.76
-0.71
-0.97
-0.48
-0.49
-0.28
0.359976
0.546056
0.0222037
0.975185
0.442549
1.11793
-0.0912293
-0.511378
0.92494
-0.339837
-0.916878
-0.484001
0.190132
-0.41223
-0.04
-0.3
0.27
-0.63
-0.67
0.08
0.47
-0.01
-0.38
-0.56
-0.54
-0.57
0.91
-1
-0.67
-6.28086e-007
-0.240934
-0.585318
-0.35907
-0.825631
-0.397992
-0.149687
0.848147
0.359904
-0.231232
-0.666523
0.629519
0.810264
0.181314
-0.437853
-0.08
0.7
0.56
-0.98
-0.37
-0.21
-0.16
0.84
0.39
-0.24
-0.58
-0.380033
-0.400166
-0.803308
0.0994427
0.905462
0.868089
-0.812248
0.149661
-0.210215
0.883845
-0.693184
1.0949
1.07668
0.845804
-0.922256
-0.732539
-0.379667
0.36744
-0.251889
0.79
0.18
0.45
0.57
-0.75
-0.34
0.18
0.75
-0.3
-0.84
0.977353
0.00352354
0.763934
-0.247407
0.75034
-0.510799
-0.0817623
0.563374
-0.875483
-0.557935
-0.0272309
-0.445998
-0.658386
-0.770751
0.349114
-0.360023
0.743821
0.119748
-0.878279
0.666048
-0.703921
-0.703553
0.34
-0.49
-0.29
-0.62
-0.37
0.24
0.46
-0.165914
-0.939646
-0.169875
0.468035
-0.110118
0.219141
0.0282358
-0.0717627
0.0516415
0.982213
-0.0429419
-0.403948
0.228635
-0.580833
0.84105
-0.648365
0.802176
0.244356
0.931266
0.854289
-0.829726
-0.853921
0.656447
0.14
-0.04
0.98
0.62
0.98
0.23
-0.0427437
-0.913145
-0.499883
0.160559
0.149874
-0.570112
0.0798239
0.751408
0.292135
-0.0330016
-0.0614084
0.118126
-0.039138
-0.285632
0.142083
-0.186414
0.262287
-0.192662
-0.160229
0.168111
0.479586
0.401205
0.289632
0.04
-0.9
0.05
-0.33
0.91
0.54
-0.0102627
0.167857
0.639597
-0.0593674
0.770754
0.224523
0.0970941
-0.0219716
-0.672434
0.366816
0.154375
-0.312519
-0.595851
0.103939
0.00265998
0.670313
-0.060369
0.679439
0.34875
-0.829773
-0.842757
0.675885
-0.429922
-0.77
0.31
0.3
-0.45
0.33
-0.54
-0.28
-0.192836
-0.427343
0.805757
-0.160126
0.780776
-0.972824
0.821007
0.301171
-0.223705
-0.774564
0.950959
0.861879
-0.128455
-0.22395
-0.434475
-0.0121693
0.595751
0.338665
-0.580974
-0.312606
0.745298
0.791769
0.880824
-0.79
0.81
0.7
0.3
0.06
-0.59
-0.282652
0.0676694
-0.364774
-0.47011
-0.937308
0.467596
-0.0420737
-0.76173
0.758625
-0.281513
-0.442321
-0.732616
-0.320153
0.292016
0.83566
-0.186814
-0.471255
-0.21307
0.925675
-0.854214
-0.422842
0.71558
-0.279568
-0.493382
-0.48
0.68
-0.81
-0.25
0.99
0.53
-0.915291
0.951025
-0.609738
0.369157
-0.717001
0.840935
-0.261099
0.734055
-0.640485
-0.110002
-1.0009
-0.162587
-0.0072516
-0.490866
0.589914
0.616624
-0.0967688
0.506232
0.437491
-0.246824
-0.509965
-0.725486
-0.547021
0.0592172
-0.58
0.34
-0.9
0.96
0.64
0.39
0.980811
-0.126227
-0.77161
0.318229
-0.167991
0.823054
-0.962508
-0.968084
-0.976841
-0.485875
0.962945
0.399829
0.475107
0.288044
-0.749836
-0.0945135
-0.32412
0.585235
0.313852
0.0219655
0.663249
0.287554
-0.449886
0.481919
0.58
-0.14
-0.22
0.09
0.34
-0.590822
-0.209158
-0.0780502
-0.654003
-0.898377
0.679174
-0.0556371
0.337723
0.448779
-0.721073
0.827104
0.112203
0.463342
0.238794
0.737232
-0.403194
-0.315112
0.348699
0.305384
-0.945495
0.303381
-0.0547796
-0.0675531
0.173076
-0.966927
-0.39
-0.7
-0.1
-0.93
0.0491854
0.909178
-0.68699
-0.117607
-0.32155
0.452856
-0.876442
-0.693125
-0.110666
-0.173192
-0.355071
-0.574379
0.352426
0.905581
0.940541
0.43857
0.1704
0.818921
0.565473
-0.632941
-0.583731
-0.792121
-0.94469
0.850163
-0.151112
0.882677
0.83
-0.92
0.8
-0.770814
0.129186
0.299817
0.17401
-0.0547609
-0.252707
0.181512
0.995297
-0.309571
0.4111
-0.518626
-0.328953
0.580795
-0.49634
-0.298722
-0.609391
-0.153438
-0.447223
-0.764238
0.281002
-0.401736
0.725385
-0.897915
0.0660752
-0.313708
0.203794
0.633257
0.05
0.66
-0.0808146
0.419185
0.103899
-0.943113
0.439882
-0.884394
-0.326238
0.242221
-0.190314
0.153496
0.147603
0.3893
0.139709
-0.973032
-0.032539
-0.447057
-0.284309
0.377055
-0.709651
0.505145
-0.297306
0.802401
0.63249
-0.628104
-0.447849
0.571782
-0.92676
0.356295
0.9
-0.67
-0.0408146
-0.250815
-0.330362
-0.850195
0.414706
-0.466384
-0.103048
0.932244
0.571596
-0.630871
-0.344729
0.437393
-0.822794
0.221728
0.260864
0.792286
0.876363
-0.449844
-0.117677
-0.668893
-0.560275
-1.03766
0.23509
-0.424118
-0.135084
-0.0134303
0.404363
-0.713707
0.07
0.34
0.679221
0.194965
0.904583
-0.538256
-0.57102
-0.162173
-0.754801
-0.365808
0.16333
0.885623
-0.957403
0.237766
-0.00577096
-0.556504
-0.579551
0.930458
-0.749507
-0.435727
-1.0038
0.565608
0.278993
0.103392
-0.00964619
0.466657
-0.257853
-0.591681
0.0893289
-0.319506
0.77
0.67
0.686742
-0.731908
0.842086
0.882885
0.235179
0.271559
0.274311
0.557147
0.517293
0.18395
-0.687836
0.0683047
-0.234032
-0.221434
-0.129984
0.540025
0.770025
0.649814
-0.424544
0.0794589
0.386584
-0.605003
-0.407027
-0.389708
0.330186
0.960573
-0.570576
-0.815735
-0.47
0.72
0.646161
-0.20884
0.813485
0.738985
0.306049
1.05409
-0.468487
-0.542189
0.154224
0.774646
0.624392
-0.837839
0.826488
-0.11257
-0.31246
-0.660715
0.455171
0.358559
-0.827354
-0.465473
-0.751313
-0.846586
-1.00601
-0.555427
0.480594
-0.239405
1.03204
0.114229
0.14
-0.18
-0.164884
0.306459
0.693865
0.637649
0.95978
0.560322
-0.459598
-0.785367
0.600152
-0.528735
0.318439
0.909766
-0.894296
0.0157541
-0.134038
-0.785361
-0.598831
-0.376793
0.52355
0.738232
-0.97594
0.404968
0.0167783
-0.465978
0.591365
-0.692444
-0.613842
-0.365835
-0.39
0.77
-0.485695
0.241908
-0.175888
1.0812
-0.633658
-0.452764
0.696428
0.683582
0.055338
-0.698366
0.449153
-0.975072
-0.713791
-0.973782
0.837014
-0.675227
0.414739
0.348174
0.828618
-1.01709
0.318586
-1.02349
-0.83755
-0.209113
0.861365
0.238493
0.119824
0.504654
-0.14
-0.37
-0.2001
-0.522504
0.983365
-0.511304
0.758153
0.406792
0.737737
0.112571
-0.350235
-0.397776
0.221717
0.889221
0.519185
-0.850815
-0.600815
-0.160878
0.659185
0.323186
-0.140225
-0.953765
-1.08594
0.589488
-0.697379
-0.706211
-0.00102644
-0.959377
0.654657
0.523638
-0.85
-0.98
-0.489254
-0.441624
-0.40765
0.680506
-0.776985
0.0619199
0.834821
-0.389836
0.281252
-0.473901
0.708463
0.646945
-0.978734
0.0693991
0.469436
-0.430139
0.673666
-0.00753989
-0.462234
-0.0172326
0.605876
-0.444454
-0.33304
-0.627742
-0.0514418
-0.567991
0.497391
0.75256
-0.89
-0.34
-0.73175
0.166849
-0.403878
0.263666
0.625383
-0.265996
-0.216219
0.843813
-0.857447
0.888879
-0.318282
-0.0655669
0.581212
-0.0744017
0.63438
0.690818
0.693441
0.77677
0.30999
-0.991733
0.512864
-1.00704
0.325389
0.296972
-0.382372
-0.618312
0.55419
-0.0399672
0.61
-0.64
0.802635
-0.123457
-0.21441
-0.871602
0.201377
0.291875
0.117297
0.396603
-0.586684
0.936695
0.48897
-0.174942
-0.239141
0.945677
0.75891
0.736116
0.160526
-0.726624
0.825941
-0.056939
-0.575587
-0.36831
-0.673469
0.742072
0.836413
0.366854
0.363708
-0.91
-0.27
-0.41
-0.61
-0.450815
-0.965725
0.694196
-0.583359
-0.612073
-0.256891
0.563337
-0.295956
-0.648755
0.582327
-0.489898
-0.848684
-0.895035
0.208152
-0.879144
-0.50465
0.660837
-0.684277
0.657625
0.00270208
0.147462
-0.630639
-0.114284
-0.322076
-0.399965
-0.0492387
0.17
0.43
-0.89
0.07
-0.72
0.59
0.61
0.687097
-0.840614
-0.18223
0.0860265
0.272553
0.336838
-0.730676
0.868014
0.389032
0.0689697
-0.19426
0.47918
-0.319761
0.770736
0.103009
-0.187436
-0.535637
-0.25
0.2
0.42
-0.52
-0.74
-0.2
-0.12
-0.81
-0.53
-0.69
-0.62
0.7
-0.39
0.76
-0.22
0.515561
0.935561
-0.704439
0.165565
0.585561
-0.926159
-0.986159
-0.54172
0.11
-0.69
-0.94
-0.54
-0.16
-0.86
-0.83
-0.93
0.28
-0.61
-0.98
0.55
-0.51
0.39
-0.6
0.72
-0.61
-0.72
0.54
-0.37
0.73
0
0.41
-0.66
-0.38
-0.08
0.96
-0.12
0.11
-0.68
-0.95
-0.81
0.53
0.49
0.81
-0.54
0.33
0.84
-0.74
-0.36
-0.61
-0.85
0.19
-0.13
-0.98
-0.61
0.36
0.74
0.17
-0.14
0.59
-0.19
0.09
0.54
0.42
-0.28
-0.17
-0.35
-0.62
-0.82
0.19
0.63
0.11
-0.561304
0.407643
-0.562201
-0.270883
0.9491
0.749528
0.102094
0.414426
-0.211014
0.93769
0.59
-0.35
0.27
0.1
0.51
0.55
0.56
0.85
0.89
-0.8
-0.91
-0.56
-0.26
-0.43
-0.12
-1
-0.86
-0.25
-0.250084
0.769736
0.207237
0.0166823
0.686648
-0.643238
-0.391399
-0.555284
-0.0709482
-0.817646
0.105337
-0.0258124
-0.312044
0.72
0.62
0.63
-0.08
-0.12
-0.37
0.59
-0.02
0.56
-0.11
0.79
0.18
0.46
0.48
0.81
-0.81
0.65941
-0.350199
-0.891046
-0.5533
0.875905
0.875904
-0.682833
-0.80494
0.588455
0.718752
0.509957
-0.78692
-0.521258
-0.621172
-0.22
-0.3
0.12
-0.12
0.47
-0.73
0.19
0.1
0.62
-0.19
-0.47
-0.98059
-0.901372
0.766473
0.412879
-0.217336
-0.0166348
-0.618704
0.76344
0.120357
0.797052
0.00365887
0.845846
0.218923
-0.19873
-0.6774
0.750195
1.00428
-0.203864
0.241834
-0.35
-0.24
0.04
-0.68
0.05
-0.35
-0.42
-0.61
-0.17
-0.54
0.00940947
-0.112003
0.47789
0.407032
-0.459916
0.0177334
-0.442246
-0.502324
0.114976
0.64439
0.815969
-0.408728
0.607942
0.0687599
-0.0281936
-0.555077
0.421876
0.00804264
-0.167722
0.736871
0.625556
0.715566
0.29
0.87
-0.76
-0.92
-0.85
-0.46
-0.92
-0.477847
0.864603
-0.647788
-0.713153
0.0890335
0.187743
0.917772
0.667772
0.477666
0.795107
-0.345582
0.134684
-0.449648
-0.308986
-0.10319
-0.636178
-0.328991
0.800614
0.960089
-0.08777
0.00687338
0.415558
0.705566
0.42
0.91
-0.48
0.75
-0.62
-0.77
0.187298
0.78273
0.0621878
-0.477785
0.677772
-0.0213665
0.578675
0.499847
0.31074
-1.0005
-0.363317
-0.524877
-0.764193
-0.233432
-0.229163
0.711201
-0.279029
-0.899028
-0.158149
-0.553791
-0.577228
0.526681
-0.690009
0.36
-0.44
0.11
-0.85
0.96
0.46
-0.370936
0.593285
-0.907783
0.0730959
-0.011734
0.721771
-0.807993
-0.377046
-0.634853
-0.805288
-0.495214
-0.447907
-0.209629
-0.310451
0.294713
0.303
0.753928
0.0300148
0.938757
0.00517423
0.964904
-0.519556
0.395903
-1
0.83
0.24
0.93
0.64
-0.38
0.874757
-0.753707
-0.517084
-0.379562
-1.01219
0.800826
-0.866166
-0.88488
-0.0331803
0.187297
-0.442697
0.247257
-0.465987
-0.16806
0.683197
0.700671
0.679689
0.439958
-0.601119
0.896083
1.02648
-0.434709
1.01485
-0.0114597
-0.79
-0.02
0.31
0.54
0.09
-0.62
0.213236
-0.886795
-0.323913
0.757772
-1.04004
-0.0735537
0.529659
0.860668
0.191556
0.649895
0.949939
-0.950153
0.0371758
0.986642
-0.672674
-0.203417
-0.995981
0.83717
-0.0554181
0.0552063
-0.853587
1.02396
0.718719
-0.288112
0.5
0.6
-0.68
-0.68
0.68
0.21
0.458025
-0.547329
0.598462
-0.0922627
0.070575
0.0888712
-0.769409
-0.721837
0.589845
-0.560066
-0.570001
-0.510108
0.947213
0.257144
0.878048
-0.691104
-0.253351
0.921623
-0.774635
0.695551
0.425146
0.747645
0.754323
0.178686
-0.65
0.83
-0.38
-0.08
-0.3
0.18
-0.630689
0.839667
0.107737
-0.663459
-0.385424
0.270968
0.532486
0.924962
0.774642
0.834987
-0.791976
-0.452078
0.864942
0.19498
-0.742323
0.868658
-0.153678
-0.155954
0.574346
0.366677
-0.785155
-0.0610885
0.105759
-0.669808
-0.89
-0.17
-0.92
-0.51
0.59
-0.85152
0.338078
0.836594
0.277668
0.352155
0.808106
-0.0235839
-0.848034
-0.207876
0.590176
0.71038
-0.779621
-0.330952
0.505722
0.164972
-0.690705
0.291932
0.199103
-0.487651
-0.284619
0.161992
-0.257419
0.112094
0.234286
0.929625
-0.69
0.43
0.78
-0.67
-0.54
-0.55152
-0.933235
-0.864915
-0.777082
0.642284
-0.924582
0.490199
-0.528105
-0.347364
-0.761565
-0.324649
-0.872182
0.987126
-0.398036
0.252508
-0.756566
0.796353
1.01662
-0.672674
-0.509335
0.0739135
0.404805
0.325914
-0.625935
-0.673804
0.88
-0.16
-0.78
0.69
0.84
0.617046
0.623391
-0.825612
-0.116326
-0.144237
0.196817
-0.849138
0.468768
0.314073
0.660692
0.971264
-0.815638
-0.271793
-0.00331542
-0.398733
-0.616258
-0.0640534
-0.67586
0.310831
-0.638108
0.848821
-0.529632
-0.397907
-0.44012
0.126327
0.04
0.33
0.86
1.06376e-007
-0.780535
-0.594402
-0.004848
-0.222048
-0.937084
-0.649209
0.99863
-0.680577
-0.922978
-0.264503
0.00098524
0.649384
-0.38565
0.0252618
-0.773246
-0.519649
0.402548
-0.812226
-0.136103
-0.811181
0.165086
-0.777014
1.03116
0.83008
0.830227
0.045693
-0.36
-0.11
0.77
-0.25
-0.930536
0.16059
0.145428
-0.149411
0.389349
-0.946969
0.741264
0.68664
-0.425688
-1.01329
-0.320061
0.278728
-0.71447
-0.45184
-0.704815
-0.515321
-0.779835
-0.0224487
0.833139
-0.161248
0.0234447
0.27553
0.693583
0.883035
0.0121732
-0.454306
0.06
-0.54
0.32
0.289463
-0.10029
0.309903
-0.0125689
-0.306545
0.0771681
-0.412568
0.658754
-0.949321
0.817976
0.400906
0.287772
-0.161474
0.936551
-0.353443
0.906191
-0.360291
0.318071
-0.415097
-0.113927
0.601705
-0.737768
0.766008
-0.75926
0.0973248
0.796389
0.00614134
-1
-0.45
0.37
0.279655
0.96959
-0.373229
-0.552138
0.197073
0.565491
0.0569506
0.508983
0.749245
-0.375253
0.780453
0.638549
0.238626
-0.991266
0.26874
-0.741281
-0.431497
0.182643
0.0678434
-0.403627
0.340259
-0.856333
0.965242
0.369409
0.453102
0.595302
-0.518328
-0.5
-0.82
-0.778688
-0.408484
-0.439198
0.983527
0.153003
-0.49774
-0.0865655
0.729933
-0.0463302
-0.821151
0.093926
-0.736487
0.754349
-0.715084
-1.03501
-0.603868
0.794617
-0.882437
0.205685
-0.540691
0.301995
0.0870842
-0.54608
-0.567423
0.359824
0.863098
0.563922
0.421517
0.57
-0.55
-0.568919
0.90109
-0.120243
0.599945
0.641881
0.326571
0.461085
0.371509
-0.161976
-0.602708
0.209254
-0.977423
0.471934
-0.698005
0.86209
-0.577961
-0.528226
0.0904481
0.102017
-0.529044
-0.0103012
-0.808907
-0.289653
0.446991
0.506963
-0.264659
0.313222
0.621659
-0.5
0.53
0.42108
-0.219934
-0.320488
0.51715
0.11622
-0.31376
-0.243401
-0.755497
-0.492454
0.705513
0.759249
-0.130531
0.55982
-0.100193
-0.85569
-0.144903
0.29509
-0.524597
6.05998e-005
0.342842
-0.0674321
0.840033
0.908812
0.976449
-0.753035
-0.588017
-0.830887
-0.130425
-0.9
0.69
-0.460347
-0.151361
-0.873162
0.29593
-0.126834
0.947208
-0.472663
0.451457
0.519351
-0.435773
-0.777356
-0.266381
-0.600751
-0.120772
-0.690751
0.419232
-0.160767
-0.719423
0.140897
0.69447
-0.990843
0.314432
-0.307364
0.622865
-0.224598
-0.612319
0.15047
0.240628
-0.06
0.85
-0.940345
-0.301366
-0.610094
0.462631
0.713087
0.557441
-0.287463
-0.0730509
0.185223
0.720933
-0.450818
0.108763
-0.899015
-0.575091
-0.69509
-0.417293
0.203444
-0.759924
-0.784794
-0.518197
-0.206758
-0.47616
-0.240576
-0.675794
1.02065
0.791647
-0.754068
0.740634
-0.19
-0.2
0.329654
-0.461356
-0.461926
0.483419
-0.332822
-0.600139
0.331455
0.586102
0.662928
-0.903875
0.52667
0.285219
-0.535039
-0.714082
-0.700838
0.271714
0.307115
-0.718075
0.251559
-0.561414
-0.886138
-0.477489
0.00017982
-0.185694
-0.132178
-0.477217
-0.462623
-0.88
-0.92
0.42
-0.04
0.0393039
-0.131363
0.0399037
-0.548655
0.485789
0.784496
0.124152
0.322189
-0.691592
-0.365427
0.69738
0.378812
-0.79327
-0.924546
-0.902616
-0.0290662
0.69159
0.441814
-0.765739
-0.137119
0.38033
0.311593
0.307869
0.610694
0.631643
-0.990066
0.32
-0.83
0.46
0.02
-0.54
-0.920581
-0.470934
-0.471948
-0.460778
-0.081108
0.527796
-0.837543
-0.146907
0.82959
-0.514764
0.353832
0.700616
-0.624536
0.49601
-0.686975
-0.520644
0.233498
-0.856179
-0.429192
0.648818
0.478875
-0.641122
0.0106246
0.79
0.139257
0.55
-0.75
-0.9
0.66
-0.84
0.74
-0.79
0.369995
-0.390586
-0.291118
-0.0326198
-0.9895
0.914322
-0.792532
-0.538701
0.557781
-0.460055
-0.0184525
0.0114901
-0.621819
0.396362
-0.586977
0.924423
0.2
-0.89
0.66
0.52
0.5
0.45
0.51
0.26
-0.2
0.51
-0.83
-0.09
0.31
0.26
0.06
-0.41
-0.72
0.85
0.41
-0.0400004
0.0599996
-0.49
-0.54
0.46
-0.25
-1
0.84
0.96
0.13
0.13
-0.88
0.89
-0.46
-0.56
-0.07
0.33
0.18
-0.16
0.22
-0.62
0.24
-0.97
-0.06
0.53
0.46
-0.92
0.14
-0.12
0.93
-0.54
-0.08
-0.24
0.03
-0.8
0.28
0.34
-0.67
0.57
-0.96
0.86
-0.96
0.5
-0.22
-0.9
0.02
0.79
-0.66
0.65
-0.57
0.01
-0.88
-0.91
-0.96
-0.37
0.07
-0.86
-0.55
-0.35
-0.77
-0.79
-0.62
0.24
0.01
-0.02
-0.8
-0.53
0.36
0.658382
-0.0936572
0.352665
-0.846222
-0.394211
0.124017
-0.935516
-0.738146
0.710232
0.590488
-0.11
-0.44
0.78
-0.2
0.13
-0.28
0.01
0.66
-0.08
0.31
0.8
0.91
0.64
-0.48
0.56
0.18
0.97
0.0598529
-0.348881
-0.563004
0.000599754
-0.994615
0.914143
-0.857182
-0.0412944
-0.962752
-0.375094
-0.257673
-0.576452
0.66194
0.147892
0.76
-0.29
-0.94
-0.38
-0.18
0.18
0.93
0.52
-0.35
-0.56
-0.94
-0.41
0.52
-0.73
-0.75
-0.16
-0.481895
-0.570569
0.388823
-0.832654
0.0502619
0.298086
0.47813
0.647738
-0.903465
-0.6619
0.147629
-0.110652
-0.731425
0.0511025
0.02
-0.23
-0.74
0.97
0.33
0.92
0.69
-0.56
-0.52
0.14
-0.21
-0.470131
-0.256038
0.688157
0.255457
0.122529
-0.196882
-0.13023
-0.404954
0.149931
-1.00875
0.422985
-0.17336
0.475155
0.931244
-0.294388
0.27367
0.623997
-0.747077
0.0621559
-0.47
-0.07
-0.47
-0.38
0
-0.09
-0.07
0.28
-0.39
-0.0900002
-0.400134
0.297503
-0.389379
0.0762302
-0.782301
0.678903
0.437132
-0.833889
-0.032759
-0.797086
-0.926148
-0.783264
-0.334385
0.00729489
0.698676
0.693327
-0.562475
0.514725
0.970169
0.0599212
-0.179425
-0.619368
0.35
0.05
0.84
0.32
0.65
0.93
0.49
-0.615971
-0.233795
0.595389
0.433662
-0.637688
0.438896
0.877141
-0.872859
-0.524335
0.097262
0.0875629
-0.645019
0.00208295
0.869971
0.0924181
-0.101824
0.00597224
-0.172193
-0.0900297
0.575382
-0.324853
0.460576
0.620632
0.69
0.52
0.96
-0.23
-0.86
0.44
-0.851229
0.640066
-0.988082
-1.03538
-0.397772
0.539844
0.799844
0.798747
-1.02223
0.634259
0.857228
-0.150486
0.146885
0.291075
-0.204577
0.542378
0.37288
-0.26281
0.286507
0.0480973
-0.893296
0.183243
0.119942
-0.39
-0.06
0.68
0.5
0.59
0
0.109562
-0.773407
-0.21905
-0.247195
-0.803023
-0.686461
-0.606431
0.758268
-0.379064
-0.941344
-0.444008
0.49888
-0.564001
0.47236
0.864957
-1.06603
0.736128
0.724147
-0.141758
0.588274
-0.661269
-0.830774
0.183081
-0.93
0.94
-0.66
-0.09
0.76
-0.16
0.7
-0.901234
-0.949166
-0.256241
-0.537765
0.828505
-0.882424
0.379298
0.649639
-0.622881
-0.624499
0.572752
-0.649126
-0.214518
-0.871474
0.671478
-0.23559
-0.829922
0.330604
0.933177
-0.860431
0.558391
-0.41666
0.280021
-0.63
-0.94
-0.08
-0.89
-0.13
-0.88
0.51989
-0.463482
0.108385
-0.0177939
-0.625904
0.206798
-0.111199
-0.20379
-0.413349
0.392966
0.851412
-0.357629
0.474422
0.103483
0.775933
-0.956314
-0.0631865
0.541052
-0.357354
-0.274352
0.0383191
0.64517
0.897396
-0.269694
0.8
-0.77
-0.38
-0.84
0.23
0.69
-0.0705801
-0.612998
-0.434478
-0.951097
0.405035
0.50702
0.712104
0.0106791
-0.0145589
0.229164
-0.762001
-0.107141
0.247999
0.0795085
0.570997
-0.178546
0.415446
-0.208867
-0.596979
-0.842268
0.519815
-0.697645
-0.111431
-0.146826
0.36
-0.97
0.53
-0.81
-0.64
-0.56
-0.734222
-0.993096
-0.732096
-0.201591
-0.414668
0.756124
-0.638866
-0.138594
-0.79692
-0.458263
-0.52062
0.185979
-0.237323
-0.451268
0.596152
-0.835962
0.774532
0.240266
-0.457495
-0.161375
-0.0831571
-0.391316
-0.661544
0.074045
-0.66
0.57
-0.59
0.19
0.94
-0.341107
-0.139017
0.646405
-0.375252
0.511773
-0.820528
-0.722163
-0.593959
0.670605
-0.738347
-0.666622
0.775353
0.0069579
-0.00948597
0.128907
-0.0736829
-0.167179
-0.995119
-0.352073
-0.0959125
-0.0512771
0.0715057
0.648788
-0.0344956
-0.581472
-0.94
-0.56
-0.5
-0.69
0.299
-0.721106
-0.940538
0.0295194
-0.9073
0.440862
-0.625673
-0.957364
-0.142521
-0.34289
-0.296718
0.863277
-0.10723
0.628655
0.237778
-0.049891
0.143607
0.678382
0.712119
0.7099
0.38568
0.834974
0.454639
0.382603
-0.223521
0.22304
-0.09
-0.89
-0.55
-0.940999
0.849001
0.653202
-0.810134
0.266346
-0.232487
0.043809
0.905421
0.759651
0.0367823
-0.748863
0.391911
-0.796682
-0.809137
0.509539
0.116075
-0.329729
0.17789
0.991325
0.679647
-0.0228
0.962433
-0.821314
-0.219305
-0.707801
-0.492499
-0.486769
0.37
0.73
-0.211
0.919001
-0.293504
-0.254061
-0.0393579
-0.200305
-0.861098
-0.129683
-0.152515
0.446237
-0.533677
0.69315
0.784023
-0.384602
0.271669
0.839842
-0.867714
-0.029839
0.690092
0.579941
-0.791674
0.419863
0.410167
0.509808
-0.00687804
-0.713636
0.161066
-0.567035
-0.78
-0.09
0.709001
0.349
-0.132166
0.949261
0.142498
-0.0498519
-0.0161521
-0.476785
0.574401
0.652348
-0.899595
0.84554
0.866012
-0.923643
0.897353
-0.288812
0.570162
-0.209848
-0.768332
-0.874389
0.578069
-0.316282
-0.872997
0.572659
0.0329817
0.0425479
-0.792855
0.452969
-0.9
-0.13
-0.380081
0.549842
-0.487065
-0.108326
0.512643
0.666896
0.493102
-0.82841
0.469053
0.0654719
-0.601227
-0.601716
0.818259
0.138224
0.4682
-0.359759
-0.0197134
0.0913856
-0.796035
-0.834964
0.936261
0.237398
0.936458
0.0217403
-0.706143
-0.790666
-0.765921
-0.696869
0.34
-0.32
-0.990743
-0.433737
0.00937117
-0.751791
-0.80896
0.44607
-0.723819
0.313851
-0.399464
0.160553
-0.965123
0.203386
0.0281
-0.401881
0.918224
-0.919736
1.01019
-0.485958
0.922478
-0.988955
-0.0495156
0.372228
0.0266924
0.445183
-0.585953
0.349708
0.994334
0.45317
-0.92
-0.51
-0.590359
0.896944
-0.597437
0.449123
0.826724
0.631227
0.875969
0.383847
0.0318034
-0.0269886
0.0642919
0.856328
-0.611156
0.554162
-0.792367
0.685534
-0.327918
-0.773121
-0.439465
0.906748
0.866003
-0.634501
-0.307476
-0.693988
-0.603956
0.399707
0.0181152
-0.505542
0.72
0.97
-0.243261
-0.593071
0.870181
-0.901197
0.99767
0.667909
0.572284
0.46697
0.290856
0.131536
-0.693389
0.430807
0.454964
0.885032
-0.314415
0.57163
-0.15191
-0.0343644
-0.432775
-0.908279
-0.316379
-0.13821
0.863437
0.327287
0.426171
0.353646
0.450264
0.894458
0.12
-0.36
0.476723
-0.213481
-0.550855
0.339298
-0.798006
0.80128
-0.0311143
-0.737403
-0.86798
-0.219838
-0.850356
0.603006
-0.215051
0.0969822
0.107562
0.73829
0.146199
-0.560181
-0.439803
-0.118598
-1.00142
-0.942096
-0.911684
0.938585
0.00620121
0.713624
0.79763
0.778127
0.71
0
0.60626
-0.263935
0.981249
-0.23293
0.324431
-0.0929874
-0.902558
-0.36922
-0.390298
-0.736412
-0.12664
-0.650298
0.779644
0.00958031
0.0495809
0.269614
0.529644
0.0500527
-0.414681
-0.646031
-0.804788
0.367233
0.759884
0.286963
-0.0854634
0.54195
0.321528
0.151012
0.34
0.25
0.936953
-0.993091
-0.469823
0.00225597
0.777474
0.681414
0.742005
-0.126458
-0.570321
0.824146
0.825748
-0.06428
0.74007
0.360079
-0.57989
0.55011
-0.535987
0.415829
-0.727391
-0.0543558
0.538061
-0.190727
0.617972
-0.161544
0.376103
-0.230921
-0.0621841
-0.649074
-0.24
0.92
-0.443947
0.546009
0.171572
-0.147308
0.53029
0.610731
0.55538
-0.589405
-0.372291
0.310737
-0.612949
0.68977
-0.824047
0.66599
-0.243294
0.131809
-0.069952
0.409592
1.0048
-0.071938
0.224756
0.724225
0.60283
-0.725161
-0.186555
-0.8231
0.924561
0.710918
-0.01
0.65
0.21
0.36859
0.628215
-0.529395
0.0530594
0.609458
-0.541409
-0.00338202
0.120331
0.166523
-0.0537075
-0.0946884
0.984841
0.464903
-0.219067
-0.944812
0.984173
0.285054
0.690852
0.271517
0.44174
0.131259
-0.388809
0.0759415
0.944057
-0.310818
0.811193
-0.6
0.06
0.72
0.69
0.299
0.119576
-1.01177
-0.922002
-0.307753
0.00761816
0.20362
0.701076
0.584965
0.27206
0.613455
-0.593469
0.465824
-0.663403
0.736362
0.841481
-0.73188
-0.795007
0.685084
0.204248
-0.906484
-0.231386
-0.412832
-0.435988
0.320919
0.720918
0.38
0.2
-0.3
-0.08
-0.28
0.95
0.69
0.592808
-0.737273
0.666299
-0.440334
0.228617
0.149186
0.696467
-0.309404
-0.614749
-0.34718
-0.977208
-0.142011
-0.904724
-0.245809
-0.043656
-0.583809
0.800002
-0.63
-0.26
-0.45
0.58
0.46
0.92
0.06
0.35
-0.32
0.54
-0.62
0.38
-0.11
-0.18
0.94
0.129747
0.0697471
-0.280253
-0.310253
0.839749
0.809552
0.289548
0.049801
0.93
-0.66
0.78
0.27
-0.18
0.38
0.07
0.15
-0.56
-0.86
-0.85
-0.03
-0.55
-0.7
0.86
0.2
-0.43
-0.96
-0.29
-0.16
-0.39
-0.62
0.65
-0.17
0.28
-0.9
0.97
0.07
0.1
0.76
-0.18
-0.34
0.71
-0.86
-0.53
0.81
-0.41
-0.52
0.06
-0.27
0.04
-0.6
-0.82
0.99
0.73
0.04
-0.53
-0.58
0.77
0.49
-0.11
-0.82
-0.87
0.5
0.23
-0.54
-0.83
0.98
-0.75
0.97
0.4
0.42
-0.04
-0.390011
-0.89002
-0.130408
0.809603
0.199603
0.879938
-0.790062
0.2739
-0.0799993
-0.81
0.76
-0.02
-0.02
-0.07
0.12
-0.3
-0.34
-0.65
0.58
0.8
-0.88
-0.11
-0.25
-0.17
0.46
0.04
0.71
-0.691059
0.38805
0.666653
0.286235
0.526227
-0.173808
-0.662693
-0.421595
0.598462
-0.730019
-0.715897
0.0701876
0.0101957
-0.729968
-0.29
-0.63
-0.82
-0.28
0.27
0.54
0.17
-0.67
0.76
0.91
-0.43
0.54
0.209995
-0.880005
-0.940005
0.589995
-0.821063
-0.432028
-0.113432
-0.593773
-0.913801
0.556183
-0.293813
-0.952964
-0.842946
-0.507243
0.434358
-0.85572
0.740462
-0.419965
0.59
-0.28
-0.56
-0.69
0.45
0.99
-0.97
-0.21
0.64
-0.210005
0.129995
-0.370005
0.909968
-0.873198
0.226848
-0.677104
0.593776
0.21971
-0.0384911
-0.926371
-0.303815
-0.165716
-0.353918
0.725962
0.467223
0.612696
0.713047
0.404351
0.900316
-0.579932
0.66
-0.67
-0.2
0.14
0.93
-0.45
-0.53
-0.27
0.279995
-0.530005
0.635981
0.0721885
0.617175
0.486372
-0.486656
0.6824
0.681337
0.530442
0.0187166
-0.201121
-0.865092
0.701117
0.362163
0.734477
-0.785195
0.0909398
0.532997
-0.10698
-0.439688
-0.329937
0.130028
-0.149972
0.34
-0.99
-0.12
0.77
-0.6
0.65
-0.150005
-0.00646719
-0.289781
-0.125315
-0.266201
0.172814
0.102445
0.14138
0.711337
0.620442
0.148747
0.289702
0.600649
0.0512944
0.755266
0.409311
-0.564445
0.560277
-0.0970214
-0.327088
-0.229699
0.560064
0.220028
0.570029
-0.43
0.37
-0.7
-0.99
0.49
0.48
-0.210922
0.0289385
0.124572
-0.607013
-0.217505
0.0684306
-0.901615
-0.202634
0.827339
-0.503556
0.094749
-0.58433
0.396982
-0.472961
0.720808
-0.334402
-0.0656103
0.778475
0.162465
-0.645809
-0.719905
-0.429942
0.48
0.94
-0.73
-0.73
-0.05
-0.64
-0.78
-0.500029
0.762472
-0.165793
-0.955388
0.424032
0.481027
0.680978
-0.738866
0.859222
0.857713
0.947835
0.376056
-0.672165
-0.821001
-0.630964
0.340863
-0.409233
-0.106146
0.0202543
-0.511084
0.304173
-1.00126
-0.760016
-0.49
-0.07
0.76
-0.97
-0.34
-0.48
0.619998
-0.601359
-0.314109
0.701555
0.922452
-0.989822
-0.468719
0.415377
-0.27089
-0.260297
0.669688
-0.873418
0.71323
0.251079
0.051588
0.351571
0.102021
0.942197
-0.488802
0.288675
-0.8925
0.449125
0.946665
-0.6633
0.02
-0.5
0.92
0.67
0.12
-0.53
0.364934
-0.0388584
-0.83883
-0.827548
-0.561908
-0.0739615
0.706303
0.570936
0.922384
-0.814771
0.235154
0.264309
0.822333
0.783332
-0.935065
-0.296566
-0.817893
0.803342
0.64263
-0.558242
-0.369467
-0.251462
0.106428
0.666393
-0.52
-0.79
0.27
0.94
0.7
0.76
0.244649
0.568973
0.398989
-0.8576
-0.455904
-0.380927
0.799398
0.192
0.224797
-0.702854
0.937329
0.795493
0.0146205
0.816002
-0.372088
0.845587
0.754333
0.884729
0.0937788
-0.42713
-0.168233
-0.299592
-0.759959
0.230004
0.73
0.66
-0.98
-0.92
-0.56
0.52
0.942216
0.5719
-0.487573
-0.387573
-0.505923
-0.399845
-0.098164
-0.255207
0.236229
0.628418
0.0274234
0.376528
0.324722
0.236078
-0.603112
0.726786
-0.0245792
-0.27358
0.123791
0.472685
-0.802967
-0.607863
0.0302113
0.94
0.06
-0.3
-0.4
0.08
-0.51
0.409836
-0.248763
-0.340992
-0.457578
-0.737488
0.215007
-0.0798327
0.0131802
0.315802
0.388962
-0.290065
0.779056
-0.94217
-0.823629
0.315014
-0.103114
-0.611651
0.915549
-0.463257
-0.156201
-0.716179
0.616913
-0.261315
0.27886
-0.390005
0.45
-0.76
-0.6
-0.47
0.18
-0.0801637
-0.810094
-0.831088
-0.547604
0.31262
-0.656277
0.349653
-0.736916
-0.955136
-0.940791
0.899136
-0.610868
0.857639
-0.0335996
-0.583308
0.166964
0.242357
-0.224296
-0.283243
0.103802
-0.426132
-0.183048
-0.240373
-0.83981
0.599994
0.72
-0.59
0
0.23
-0.27
0.19976
-0.353529
0.460706
0.450883
0.668817
-0.9746
0.231205
0.645919
0.777336
-0.519606
0.271321
-0.218643
0.880672
-0.0294256
-0.943156
-0.763041
-0.607417
0.55506
-0.0535988
0.144181
-0.0519569
-0.863003
0.0441925
-0.630772
0.430022
-0.33
0.64
-0.97
0.96
0.199597
-0.0205707
0.0927106
-0.801081
0.632635
-0.977303
0.335178
0.0509438
-0.704398
-0.331471
0.650132
-0.809842
-0.259859
-0.149878
0.340048
0.0203398
-0.899213
0.616626
-0.471832
-0.339603
-0.601907
-0.451986
-0.442758
0.0142082
0.423132
0.230022
-0.62
-0.33
-0.38
0.43
0.408285
-0.371925
0.790871
0.682967
-0.00719942
-0.437326
0.645276
0.580968
-0.427981
-0.945263
-0.713822
-0.683817
0.0600807
0.710178
-0.279759
0.0305573
-0.389398
0.326675
0.666187
0.638437
-0.0219757
0.437832
-0.785159
-0.444316
-0.0268715
0.780022
0.65
-0.07
0.37
0.929602
-0.741761
-0.432878
0.346076
0.00304091
-0.11732
-0.511268
0.938895
-0.404653
0.531853
0.714736
-0.434126
0.945882
0.0158645
-0.584039
0.815961
0.146345
-0.794262
-0.96086
0.438757
-0.00169663
-0.432047
-0.842316
-0.0324023
0.927224
-0.736864
-0.319995
0.94
0.3
0.47
0.129887
0.336321
-0.599802
0.862668
-0.776386
0.49892
0.0287604
-0.495228
-0.786225
0.798991
-0.978575
0.265643
0.685849
-0.244141
0.605951
-0.904996
-0.655712
0.0313477
0.0270309
0.0471569
0.0577307
0.797934
-0.110485
-0.0152639
-0.69678
0.684108
0.0500048
0.24
0.01
-0.890073
-0.760121
-0.543761
0.260567
-0.799674
0.709054
-1.01394
0.338746
-0.915311
-0.585248
-0.0799737
0.568237
-0.267864
-0.316307
-0.375996
0.423068
0.0014693
-0.841254
0.765461
-0.0467655
0.31689
-0.982292
0.319037
-0.310807
-0.667035
0.393203
-0.675881
0.960005
0.18
-0.51
-7.60851e-005
-0.0204533
0.156233
-0.819382
0.5306
-0.702943
-0.638795
0.839107
0.458723
-0.545361
0.0949232
-0.171104
0.35805
-0.599715
-0.269511
0.789534
0.516353
0.493886
-0.197927
-0.0372537
0.216638
0.635547
0.934871
-0.143119
0.503344
-0.556605
0.94434
-0.919995
-0.72
0.92
-0.240075
0.0384884
0.126251
0.630329
-0.229681
-0.729628
-0.148253
-0.999911
0.408919
-0.12132
0.34867
0.388732
-0.468227
-0.808166
-0.648161
0.741834
0.00178718
0.329077
-0.409782
-0.868813
0.365495
-0.727236
0.605996
-0.426629
-0.776656
0.274354
-0.895678
0.500001
0.39
0.51
0.879947
-0.891485
0.196432
0.19024
-0.959664
0.0703709
-0.265084
0.536026
0.821963
-1.03975
0.538799
0.628649
-0.561348
0.688652
-0.921348
0.628652
0.0386847
-0.911023
-1.0288
-0.298401
-0.666551
0.914877
-0.660417
0.613369
-0.32571
0.374155
-0.935867
-0.209999
-0.49
0.69
-0.650053
-0.890426
0.0377585
-0.36357
-0.47949
0.21031
0.270263
-0.99502
-0.230415
-0.385308
-0.12426
-0.409367
-0.601341
-0.991351
0.288667
-0.151313
0.489123
0.242753
0.524179
0.476445
-0.0951749
-0.00173993
0.324554
-0.975712
-0.0556405
0.034167
0.754046
-0.75
-0.07
-0.31
0.519902
0.199561
-0.761269
0.197545
-0.659783
0.720291
-0.749745
-0.249689
-0.913639
0.776155
-0.974982
0.0386254
-0.994167
0.789657
0.51912
0.611166
-0.355293
0.707658
0.213807
-0.707274
-0.167009
-0.685666
-0.405658
0.734127
0.19415
0.344138
0.824045
0.84
0.52
0.82
0.769976
0.619893
-0.291269
0.848637
-0.482879
0.0562325
0.620268
0.760337
-0.539738
-0.149766
-0.443667
0.446399
-0.36366
-0.443324
-0.483232
-0.353225
-0.301064
0.199209
0.603199
0.742989
0.644251
0.644238
0.244239
-0.365991
0.663989
-0.806057
0.0839011
0.39
-0.32
0.93
0.23
-0.43
0.78999
0.319058
0.48871
-0.221566
-1.00245
0.510208
0.670488
0.97053
0.0604991
-0.999084
0.880928
-0.308045
0.511781
-0.147066
-0.395806
0.664211
0.774161
-0.865828
0.424156
-0.925878
-0.0158749
0.0738989
-0.279998
-0.8
0.0300014
0.02
-0.39
0.69
-0.46
-0.24
-0.26
0.46
-0.01
-0.690034
0.978838
0.819034
-0.820968
0.602742
0.233802
0.0740018
-0.125969
-0.945876
0.374148
0.504147
0.823923
-0.846106
-0.886101
0.893898
0.27
-0.7
0.18
0.53
0.08
-0.74
0.81
0.31
0.7
-0.71
0.11
-0.61
0.81
0.68
0.56
0.93
-0.04
-0.93
-0.55
-0.26
-0.4
-0.690005
0.319995
0.919995
-0.48
0.3
-0.24
0.26
0.2
-0.36
0.86
-0.45
0.5
0.6
0.65
0.21
-0.85
-0.21
0.3
-0.93
0.85
0.71
0.67
0.6
0.98
0.45
-0.06
-0.89
-0.06
0.27
-0.35
0.17
0.84
0.53
-0.47
-0.12
-0.94
-0.07
-0.11
-0.43
0.34
0.92
0.62
0.36
-0.95
-0.88
-0.77
-0.54
0.17
-0.67
0.75
-0.72
0.21
-0.98
0.68
-0.27
0.17
0.45
-0.11
-0.24
-0.73
-0.06
-0.66
0.47
-0.4
0.15
-0.26
0.00794712
-0.856817
-0.13839
-0.241722
-0.397906
-0.104913
0.651436
-0.388763
0.844138
-0.919565
0
-0.63
-0.05
0.77
0.61
-0.89
0.94
-0.31
0.07
0.53
0.66
0.66
0.25
0.06
0.39
0.83
-0.6
-0.778573
-0.818907
0.0187829
-0.920024
-0.70507
0.189406
0.372666
-0.680917
0.465624
-0.0620535
-0.8327
0.631469
0.623318
-0.384964
-0.93
0.08
0.7
-0.73
-0.06
0.15
0.71
0.17
0.98
0.34
0.4
-0.04
0.450021
-0.879981
0.860019
0.360021
0.461503
0.0459036
-0.597631
0.941865
0.94969
-0.627533
0.222721
0.781312
0.915117
0.751176
0.91802
-0.727103
-0.0615201
0.954883
0.28
-0.54
0.32
0.32
0.98
0.78
-0.82
-0.79
-0.37
0.630019
-0.799981
-0.574715
0.338604
0.794484
0.0530718
-0.405927
-0.897349
0.1594
-0.275273
-0.647238
-0.416411
0.372567
-0.450016
-0.473172
-0.435332
-0.899162
-0.272217
0.796082
-0.917524
-0.164794
-0.4
-0.99
0.39
0.98
0.07
-0.88
0.61
0.15
-0.709981
0.060021
0.425326
-0.420541
0.465416
0.0284875
0.813314
0.461306
-0.0124482
-0.133294
-1.01812
0.0480781
-0.661812
0.612204
0.163785
0.688869
0.958674
0.108998
-0.283388
0.272463
-0.461696
-0.772741
0.0899634
0.939946
0.01
0.63
0.69
-0.6
-0.63
0.33
0.310021
0.832648
-0.391542
0.465522
0.0785732
0.788602
0.0913124
0.337544
0.317544
0.0180956
0.0119574
0.464851
-0.340455
0.809792
-0.387934
0.282378
0.540212
-0.868908
-0.924092
-0.508725
0.00627806
-0.310842
-0.300036
-0.0800546
-0.38
-0.61
-0.32
-0.39
-0.2
-0.24
-0.0333229
0.860795
0.74388
0.188494
0.0686268
-0.689728
-0.0696999
-1.01312
-0.898911
-0.303767
0.585876
0.0133583
0.678021
-0.302072
0.106301
-0.626125
-0.579917
-0.23593
-0.81753
0.881074
0.778781
-0.168364
-0.589982
-0.45
0.83
-0.35
-0.31
0.74
0.36
0.980552
0.820617
-0.0758817
-0.356706
-0.519225
-0.629651
-0.491832
0.589503
-0.650001
-0.710018
-0.341685
-0.426199
-0.88276
-0.344226
-0.204636
-0.200345
-0.696732
0.246778
0.652593
-0.0581075
0.0939885
-0.3679
0.96526
-0.33
-0.9
-0.7
-0.91
-0.76
-0.48
-0.841143
0.492462
-1.01345
-1.01732
-0.30138
-0.873353
0.809948
-0.538133
-0.746387
0.571343
-0.773846
-0.775247
-0.350884
0.10443
-0.1311
-0.0488949
-0.438727
0.105239
0.859537
-0.116045
-0.272334
-0.136749
0.156933
-0.189873
-0.98
-0.05
0.32
-0.13
-0.16
0.95
0.620161
-0.275873
-0.408481
0.818599
0.466006
0.758979
0.270618
0.272435
-0.311259
-0.334482
-0.0396744
0.501778
0.858881
0.252854
0.68446
0.505525
-0.501517
-0.658297
-0.281275
0.657611
-0.118809
-0.682707
-0.203043
-0.365042
-0.33
0.13
0.99
-0.81
-1
-0.75
0.925377
-0.753017
0.637913
0.00131485
0.595439
-0.803116
-0.00785324
-0.90046
0.373674
0.893149
-0.703725
0.199713
-0.416334
-0.377502
-0.533988
-0.0574786
-0.899351
0.744929
-0.777688
-0.0917755
0.508195
-0.764769
-0.580194
-0.599946
-0.38
0.58
0.3
-0.41
0.18
0.58
0.880165
0.228266
0.591285
-0.602243
-0.0344301
-0.377062
-0.86365
0.834535
0.618504
-0.0949556
0.715593
-0.319497
0.111535
0.236402
0.375128
-0.290363
0.0267367
-0.114815
0.746405
-0.593744
0.633063
-1.10807
-0.890807
-0.058627
-0.39
0.21
0.8
0.03
-0.13
-0.109976
0.250764
-0.672161
0.455376
0.349015
-0.375093
-0.20526
-0.511043
0.52729
0.182662
-0.115683
0.353076
0.0963376
-0.685521
-0.399352
-0.527476
0.159161
-0.0316629
-0.461866
0.413002
0.23313
0.630946
0.589148
-0.053926
-0.193668
-0.65
0.81
-0.53
-0.27
0.600001
-0.379975
0.913445
0.805621
-0.033547
0.277425
-0.351998
0.380356
0.475837
-0.132575
-0.69572
0.595832
-0.663021
-0.821274
0.563688
0.279091
-0.600334
-0.406767
0.340481
-0.102244
-0.280074
-0.622074
-0.508826
0.68969
-0.49758
0.0329512
0.59
0.3
0.62
0.640001
-0.00999863
0.656682
-0.493725
0.568987
0.162602
0.539826
-0.10866
-0.67733
-0.611575
-0.727872
0.471301
0.739177
-0.865065
0.166246
0.47
-0.176566
-0.0126397
0.249058
-0.216336
0.621349
0.805497
0.278018
-0.240572
0.813403
-0.805176
0.659245
0.44
-0.24
0.750001
-0.509999
0.929852
-0.342881
0.409005
-0.346569
-0.899358
0.910839
-0.358989
0.34186
0.778967
0.976002
0.39295
0.182394
0.924717
0.915151
-0.0914065
-0.401049
-0.255718
-0.622664
0.385321
0.354588
-0.0965534
-1.11579
-1.15838
0.310251
-0.0613173
0.698297
-0.78
-0.06
0.970001
0.120001
-0.871402
0.661785
0.0380361
-0.621939
-0.342414
-0.202375
0.822503
0.935463
-0.569503
-0.180116
0.344703
0.315804
-0.171119
0.369621
0.8082
-0.212696
-0.607535
-0.504773
-0.801445
-0.557561
0.651661
-0.984557
-0.560738
-0.622937
0.744358
-0.871703
-0.65
0.55
-0.1502
0.0498095
0.584674
-0.151316
0.406069
0.706069
-1.0319
0.519865
0.342379
0.341659
0.421317
-0.813331
-0.149332
0.671075
-0.129231
0.280313
0.610021
1.1487
0.342759
-0.575141
-0.478108
-0.85826
-0.519546
-0.146381
-0.220372
0.152189
0.117144
-0.737003
0.4
-0.52
-0.66023
-0.264193
-0.30186
-0.0510296
-0.819873
-0.762714
-0.634392
-0.0837543
-0.200778
-0.484799
0.0219455
0.987868
-0.497034
-0.167679
0.98224
0.551792
0.994077
-0.0709094
0.42489
0.377575
-0.422605
0.324006
0.190834
-0.338633
-0.620596
0.824487
-1.05402
-0.146986
0.15
-0.1
0.829768
-0.720053
0.239295
0.741247
-0.905424
0.794128
0.831384
0.0662469
-0.30734
0.0794886
0.312633
1.0027
0.676215
0.94775
0.229427
0.0891377
0.194517
-0.328068
-0.129342
1.03725
-0.578208
0.888907
0.382599
0.108993
0.0142029
0.174936
0.0030487
0.975031
-0.76
-0.08
-0.390228
-0.150011
0.548369
0.264118
-0.540196
-0.747635
-0.651207
0.8919
0.239605
-0.474217
0.321282
0.44571
0.602242
-0.171527
-0.652235
1.08255
-0.620854
1.01662
-0.0436839
0.423463
0.588582
-0.676646
-0.952997
-0.0506744
-0.525927
0.283066
-0.624685
-0.64599
0.83
-0.05
0.169807
-0.0706225
-0.968431
0.22233
-0.879266
0.392349
0.216518
0.118214
-0.353019
0.0850259
-0.273813
-0.798752
0.978021
0.627571
0.72693
-0.0939283
0.436504
0.776428
-0.450837
0.53483
0.0578668
0.279723
-0.695117
-0.792233
0.0841117
0.703977
-0.0786436
-0.270648
-0.73
0.12
0.809763
-0.180664
0.222507
-0.170917
-0.368367
-0.293523
-0.325741
0.0837704
0.242968
-0.547363
1.11529
-0.135182
0.336187
0.506126
-0.0737934
0.0562098
0.306187
-0.283841
-0.839753
-0.708111
-0.503553
-0.825339
-0.609628
0.708322
-0.794538
0.381587
-0.745173
-0.0658291
0.6
0.28
0.399761
-0.312096
0.485683
0.989576
0.666949
-0.423122
-0.0465812
-0.0734635
0.0702435
-0.0181467
1.00414
0.983959
-0.556592
-0.334976
0.904955
0.223511
-0.694759
0.131376
-0.750068
-0.318556
0.229933
0.791784
0.497802
0.0670305
0.297522
0.253978
-0.599346
0.340856
-0.91
0.95
0.499972
0.831518
0.602396
-0.384073
-0.809098
-0.863281
0.805619
-0.323039
-0.0316377
0.581063
0.128984
0.269967
-0.540918
-0.732039
0.769328
-0.283779
-0.739745
0.0934094
-0.630521
0.0153409
-0.603561
-0.329702
-0.393753
0.607245
0.362247
0.736833
0.646483
-0.600202
0.87
0.69
0.51
0.681502
0.883034
0.70754
1.02135
-0.589984
-0.569311
-0.654032
0.440367
0.7522
0.631845
0.848534
-0.260335
1.036
0.673319
0.0735452
0.848013
0.760137
0.632276
0.818755
-0.973521
-0.832813
-0.515665
0.00208075
-0.731856
0.246379
0.690546
-0.31
-0.95
0.49
-0.86
-0.409999
0.7613
0.78246
0.33885
0.635926
-0.316065
-0.538918
0.147332
0.555703
0.904135
0.0651083
-0.0467161
-0.748274
-0.406138
0.323666
0.52975
0.526989
0.689577
0.467555
-0.789777
-0.236372
-0.866404
1.0028
0.00186934
-0.780202
-0.990665
-0.99
-0.9
-0.52
-0.7
-1
-0.24
-0.24
-0.382377
-0.820977
0.223278
0.5978
0.52544
-0.680106
-0.475227
-0.137194
-0.715694
0.125421
0.37648
-0.406613
0.511059
0.974186
-0.882471
-0.343575
0.631113
-0.04
-0.94
-0.36
-0.99
-0.59
0.11
-0.08
0.69
0.28
-0.17
-0.76
-0.94
-0.62
0.88
-0.72
-0.939891
0.100109
-0.83989
-0.479891
0.300109
0.233121
-0.91688
0.263011
0.55
0.85
-0.26
-0.73
0.91
-0.45
0.05
0.54
-0.08
-0.89
0.4
-0.66
0.24
0.42
-0.96
-0.94
0.7
-0.82
-0.06
0
-0.11
0.68
0.95
-0.98
-0.6
-0.78
0.47
-0.62
0.4
-0.27
-0.22
0.64
-0.73
0.51
-0.21
0.56
-0.53
-0.14
0.43
-0.55
-0.06
0.17
-0.53
0.4
0.49
-0.33
0.01
-0.71
-0.13
0.59
-0.58
-0.82
-0.76
-0.05
-0.11
-0.34
0.19
-0.39
0.69
0.23
-0.73
-0.61
0.18
-0.170383
-0.0896787
0.159967
-0.649482
0.210705
-0.300137
-0.665477
-0.507459
0.666082
0.393661
0.87
-0.75
-0.84
0.19
0.14
0.13
-0.42
0.99
0.38
0.39
0.41
0.24
0.85
-0.07
-0.63
0.88
-0.96
-0.69
0.685406
-0.51474
-0.274538
-0.327352
-0.660761
0.604979
-0.579466
0.779685
-0.189742
-0.307293
1.0286
-0.763819
-0.499255
-0.67
0.09
0.74
-0.75
0.87
0.31
-0.18
-0.2
0.55
-0.33
-0.25
0.91
0.484598
0.504592
-0.0354035
-0.555408
-0.858778
-0.974594
0.325252
-0.626958
-0.596442
0.726322
0.247561
0.389419
0.28383
-0.349093
-0.169693
-0.842428
-0.230871
0.137006
0.12
-0.63
0.93
0.95
0.19
0.83
0.69
0.01
-0.12
-0.755408
-0.655408
0.385822
0.927335
-0.625763
0.761848
0.440842
0.029707
0.551924
-0.266189
1.00377
-0.41924
0.309699
-0.294289
0.467702
-0.442724
-0.835851
0.528287
-0.0620029
-0.463084
0.818529
-0.74
0.1
-0.12
0.96
0.62
0.72
-0.96
0.44
-0.415402
0.0345965
-0.251902
-0.561732
-0.868414
-0.260345
-0.682139
-0.519826
-0.519826
0.295457
0.141824
0.195214
0.302085
0.646878
-0.140903
-0.700538
-0.709365
-0.0254872
-0.867906
0.325561
-0.892409
0.747177
0.979991
0.459998
-0.73
0.5
0.4
0.71
-0.88
0.14
0.964592
-0.585273
-0.74546
-0.707854
-0.620764
0.532509
0.870174
0.14021
0.240209
0.495269
-0.475385
0.803291
0.980969
-0.099856
0.564576
0.112673
0.674852
0.170698
-0.161726
-0.371674
1.01308
-0.589232
0.559991
0.119998
-0.47
-0.62
-0.39
-0.87
-0.66
0.94
0.460859
0.563223
-0.0856561
-0.846449
-0.444221
0.115675
-0.554361
1.00336
0.712099
-0.655963
-0.277423
0.0192369
0.287138
-0.857633
0.358824
-0.459048
-0.674654
-0.467754
-0.604735
-0.653045
0.272942
0.732774
-0.0900071
-0.43
0.94
-0.09
0.25
0.17
-0.44
0.398955
-0.901484
0.933901
-0.0314441
0.913407
0.729624
0.282226
-0.0492682
-0.410722
0.846417
1.08797
0.604885
0.214008
0.0137495
0.339888
-0.581494
0.762784
0.184146
1.02966
-0.170395
1.00339
0.448582
-0.544177
0.61
0.27
0.29
0.83
-0.61
-0.84
-0.196137
0.138847
-0.0829668
0.485066
0.315778
-0.646917
-0.286523
-0.587802
-0.601678
-0.691564
-0.48156
-0.479233
-0.739316
-0.656887
0.484495
0.99819
-0.326679
-0.140643
-0.176546
0.571095
0.12601
0.553296
-0.357138
-0.171858
0.02
-0.13
0.63
0.17
-0.76
0.22
0.0821854
0.762356
-0.519538
0.675755
0.077544
-0.428332
0.999855
0.155431
-0.415233
-0.903825
-0.641975
-0.406541
0.785363
-0.295056
-0.360879
-0.778389
-0.477562
-0.825504
0.983647
0.886456
-0.0132482
0.640396
0.710577
0.571086
-0.92
-0.8
0.47
0.77
0.87
-0.19
-0.735836
0.966817
-0.798484
-0.749826
0.124617
-0.631245
-0.758687
0.715432
0.59897
0.67182
0.714147
-0.757181
0.918194
-0.269236
0.39277
-0.359106
0.697346
-0.0476504
-0.229183
-0.563024
1.10565
0.0134522
-0.309617
0.715
0.83
0.55
-0.64
0.23
0.36
-0.24
-0.270348
-0.155201
0.920128
0.376505
0.895388
-0.0609546
-0.671109
-0.253656
-0.077725
-0.569891
0.388988
-0.801341
-0.718455
0.848213
0.334648
0.287201
-0.7967
-0.226149
-0.465025
0.699643
1.03075
-0.610716
0.948478
0.305357
0.24
-0.22
0.84
-0.74
-0.3
-0.00781217
-0.794461
0.871158
-0.0893455
-0.00471928
0.495991
-0.372582
-0.735776
0.88032
0.956024
0.556833
-0.305636
0.684525
-0.5298
-0.330372
0.260231
0.201252
0.685397
-0.0455537
-0.381466
0.31161
0.543143
1.07698
-0.646175
0.559131
0.16
-0.37
-0.69
-0.82
-0.050046
-0.147812
0.0101476
0.648122
-0.471095
-0.458126
0.215448
0.839922
0.625572
-0.630791
0.50228
-0.163018
-0.661564
0.0452743
-0.856984
0.142036
-0.297642
0.551546
0.993448
0.576438
0.154393
-0.441231
0.0508413
0.291966
0.175902
-0.547534
-0.2
-0.62
0.72
0.689954
0.739954
-0.997358
-0.246132
-0.274301
-0.381433
-0.143973
-0.599432
-0.0932834
0.0343506
-0.994985
-0.873183
0.867656
0.75237
0.468038
0.0336898
0.528996
0.350117
-0.0436971
-0.936866
0.644091
-0.546634
0.446308
0.382122
-0.0250575
0.883046
0.107821
-0.09
0.09
0.869954
-0.120046
-0.110849
-0.0234413
0.614049
0.718649
-0.570824
1.0447
-0.869479
0.259478
-0.272986
0.57192
-0.979221
0.414442
-0.812978
-0.264212
0.0920205
-0.128791
0.687917
-0.606179
0.680814
-0.249891
-0.474462
0.788257
-0.0541064
-0.0465969
-0.164076
0.927118
0.05
-0.89
-0.340046
-0.850046
-0.667274
0.264249
0.216104
-0.5365
-0.495489
0.795779
0.873048
-0.257144
0.0763649
0.185445
-0.462769
-0.40241
0.828363
-0.563779
0.0288865
-0.862652
-0.800666
-0.238543
0.950294
-0.310868
0.645667
0.381919
0.105143
0.076273
-0.174659
0.0171138
-0.85
0.4
0.249431
-0.970819
-0.0718311
-0.302317
-0.633648
-0.309565
-0.0235246
0.785927
-0.0121885
-0.230428
-0.00309158
-0.274442
-0.00966374
0.247631
0.15821
0.156716
-1.04666
-0.23223
-0.182775
-0.890971
-0.748651
-0.569854
0.864766
0.563717
0.0662156
-0.0376476
0.536086
-0.0483344
0.33
-0.85
-0.542597
0.0455679
-0.10134
-0.791013
1.03028
0.989067
-0.77643
0.542175
-0.142763
0.591202
0.619213
0.155587
-0.616281
0.138092
-1.04327
-0.00481302
-1.1739
-0.371142
0.648607
-0.286683
0.759886
0.0406718
-0.679216
0.0980432
0.484137
-0.448656
-0.283911
-0.581079
0.66
0.15
0.912222
0.926016
-0.381046
0.0505374
-0.0518005
-0.0214644
-0.539927
-0.597606
-0.597486
0.203503
0.38708
0.123968
-0.613368
-1.04625
0.00990899
-0.323549
-0.948423
0.131303
-0.27868
0.784567
-0.537462
-0.754983
0.996549
-0.341564
0.277272
0.21133
0.603173
0.724194
0.3
0.12
0.832217
0.555743
-0.722528
0.620089
0.840275
-0.594292
-0.715554
0.796344
0.30102
0.843934
-0.551224
0.136509
-0.659527
0.204233
-0.807982
-0.157351
-0.31867
-0.613312
0.46211
0.481071
0.263063
-0.268112
0.846272
-0.0160821
-0.433829
0.954814
0.48543
0.376686
0.14
0.58
-0.757807
-0.516946
-0.53171
-0.48539
-0.950274
-0.466715
0.927661
0.336288
-0.740323
0.554176
-0.839989
-0.724639
0.577163
0.375684
0.134227
0.372338
-0.0361469
-0.0608039
0.691887
0.510286
-0.447268
0.635674
1.00728
-0.179839
0.726188
0.944267
0.561458
-0.910141
-0.74
-0.02
-0.562659
-0.761798
-0.965306
0.890737
-0.337323
-0.37964
-1.02267
-0.0572713
-0.278621
-0.461003
-0.11366
0.0704804
-0.39997
0.760011
0.220044
0.35003
-0.0299476
-0.253543
-0.61392
0.86617
-0.83462
0.493098
-0.776702
0.725777
-0.0623712
-0.616051
-0.286445
0.839242
-0.07
0.6
-0.790632
-0.889771
0.775345
-0.686102
0.46154
-0.142369
-0.549601
0.897693
-0.972852
-0.53471
-0.673887
-1.07381
0.775069
-0.19992
0.660046
-0.848425
0.125343
0.604045
-0.925454
0.046618
-0.288836
-0.824375
-0.66533
-0.858329
0.842778
0.761263
0.480607
0.550174
0.18
0.71
0.439914
-0.420373
0.334665
-0.256476
1.00205
-0.265031
0.126477
-0.749132
0.835268
0.834286
0.323283
-0.721892
-0.0616739
-0.559331
-0.271503
-0.913099
-0.61143
-0.820322
0.368618
-0.605314
-0.424492
-0.228021
-0.679757
0.103984
0.557406
0.343215
-0.651391
-0.360523
-0.89
0.13
0.339975
0.0999183
0.542057
0.899312
-0.306584
-0.835141
0.354469
-0.646826
0.648666
-0.932919
0.705223
0.434309
-0.797552
-0.894732
0.210885
-1.02817
-0.177479
-0.499334
0.846711
-0.542863
-0.910717
-0.46429
-0.503927
0.842116
-0.848157
0.858975
-0.699027
-0.76
0.75
-0.36
-0.71
-0.880046
0.0894144
-0.150648
-0.7909
0.702912
-0.0431479
-0.202184
0.262929
0.111073
0.1059
-0.477358
0.941137
-0.771302
-0.163907
0.67322
-0.885729
-0.46488
0.961041
0.648128
0.840108
-0.905978
0.938269
-0.271725
-0.14011
-0.220523
-0.307816
0.13
-0.26
-0.51
0.72
0.2
-0.05
0.51
-0.178819
0.691154
-0.891579
-0.378485
0.0834834
0.867756
-0.635347
-0.343149
-0.426974
0.175855
-0.222685
0.503451
0.622624
0.703348
-0.466273
-0.765579
0.359994
0.44
0.92
-0.58
0.45
-0.22
-0.4
-0.62
0.49
0.67
0.77
0.17
-0.95
0.6
-0.2
-0.66
-0.300009
-0.240009
0.209991
-0.780009
-0.160009
-0.700033
0.259967
-0.770024
-0.79
-0.57
-0.9
0.61
0.2
0.53
-0.85
0.53
0.98
0.79
0.53
-0.36
-0.69
0.35
-0.15
0.72
0.05
0.75
0.25
0.48
-0.03
0.14
-0.61
-1
0.06
-0.44
0.31
0.79
-0.79
-0.32
-0.33
0.5
-0.7
-0.94
-0.14
-0.19
0.16
-0.84
0.36
0.5
0.59
-0.77
-0.3
-0.27
-0.39
-0.32
-0.75
0.2
-0.86
0.71
-0.75
-0.68
0.21
-0.89
0.47
0.12
-0.3
-0.45
0.26
0.38
0.17
0.41
-0.9
0.189609
0.906754
-0.712083
0.377919
-0.101475
0.799576
-0.400338
-0.558731
0.0394522
0.0796087
0.3
-0.53
0.11
-0.42
-0.68
0.16
0.72
0.42
0.34
0.92
0.53
-0.58
-0.32
0.85
0.91
-0.29
-0.05
-0.300007
-0.680026
-0.0407191
0.41313
0.051505
0.501272
0.401485
-0.46239
0.88575
0.875522
-0.955726
0.36976
-0.835209
0.143518
0.15
-0.99
-0.67
-0.53
0.09
0.22
-0.62
0.73
-0.91
-0.92
0.63
-1
0.141506
0.0915063
0.511506
0.00150645
-0.869569
-0.440416
0.159093
-0.727029
-0.574721
0.285075
-0.468391
0.829518
-0.298863
-0.112575
0.0153271
0.102923
-0.569212
0.315041
0.86
0.24
0.3
0.34
-0.4
0.79
0.1
0.7
-0.77
0.141506
-0.0584937
0.372343
0.616413
0.579943
0.201258
-0.560828
0.560589
0.204739
-0.905923
0.590038
-0.907471
-0.0955902
0.702879
0.743694
0.858697
-0.672972
-0.841213
-0.533872
-0.357505
-0.735887
0.31
-0.53
0
-0.94
-0.26
-0.05
-0.51
-0.66
-0.228494
-0.758494
-0.535269
0.329139
-0.481441
-0.919249
-0.874784
0.450415
1.06996
-0.740013
-0.602284
0.231611
-0.923356
0.137041
0.790641
-0.627391
0.928019
-0.954746
-0.789206
0.229103
-0.313494
-0.206743
0.908657
0.658657
0.38
-0.73
0.94
0.85
0.32
0.25
-0.518494
0.35851
0.106559
0.627528
0.987184
-0.162603
-0.0495678
0.63
0.72
0.519981
1.07942
0.603123
0.172235
-0.26854
-0.764176
-0.843489
0.838254
-0.778353
0.870906
-0.318755
0.336175
0.243072
-0.531343
-0.911343
-0.91
-0.94
-0.7
0.14
0.09
0.99
-0.10435
0.325151
0.989734
0.347639
0.84955
-0.676374
0.153644
-0.231903
0.888663
-0.13617
0.0718459
0.202633
0.0917254
-0.432095
0.277553
-0.0979928
-0.85942
-0.85952
0.0138382
0.251044
0.34625
-0.677738
-0.0100004
-0.08
0.47
-0.51
0.79
-1
0.18
-0.294055
-0.669305
0.0201789
0.649315
0.946338
-0.483698
0.574812
0.815923
0.705956
0.295824
-0.461047
0.866894
0.00595995
0.698014
-0.835529
-0.75757
-0.337036
-0.711572
0.432811
-0.883962
-0.582557
0.816022
0.921239
0.48
-0.81
0.64
0.76
-0.79
-0.73
-0.472073
-0.699356
0.681245
-0.218117
-0.160434
0.0778569
0.596101
-0.901416
0.547808
-0.483602
-0.113986
0.168436
0.841096
-0.939804
0.01078
-0.17803
-0.463239
0.69803
0.285359
-0.772961
0.977855
-0.579239
0.222489
0.445254
-0.09
0.58
-0.71
-0.74
0.44
-0.49
0.123754
-0.54537
0.0945029
-0.65045
0.484439
0.196518
0.113643
-0.165413
0.923098
-0.927232
0.561764
-0.419084
0.319673
-0.474762
0.89392
-0.363882
-0.191183
0.185131
0.136966
0.890928
-0.504776
-0.881304
-0.127836
-0.993894
0.87
0.17
0.68
-0.53
0.52
-0.18
0.197179
0.0942746
0.391093
0.640406
-0.692313
0.301355
0.0723347
0.525907
-0.358278
-0.122021
0.150764
-0.247078
-0.429968
-0.0260143
-0.165635
0.533858
0.675457
0.583377
-0.0641093
-0.288809
0.416139
-0.479829
0.74801
-0.374437
-0.26
0.1
0.14
0.89
0.62
-0.14
1.01574
-0.233317
0.535665
0.0156913
0.195005
0.0202129
-0.285034
-0.0908444
-0.3854
-0.123804
-0.114355
0.110894
-0.272634
-0.0234031
-0.220691
-0.96039
-0.883258
-0.654116
0.0290425
1.05184
-0.890959
-0.934575
0.455238
0.82023
-0.74
0.08
-0.71
0.88
-0.63
0.716485
0.815428
1.06151
1.05528
-0.758884
0.833892
-0.418109
0.360054
-0.841887
0.859217
0.757653
-0.274249
-0.163156
0.64646
0.935298
0.781318
-0.831771
0.765108
0.866963
1.06045
0.370304
-0.741378
0.628529
-0.369777
-0.60771
0.37
-0.14
0.87
-0.49
-0.374741
0.826485
0.220911
-0.463518
-0.21366
1.02797
-0.337634
0.113458
0.265811
0.781709
0.667685
0.070426
0.100527
0.374485
-0.608957
0.474189
-0.461425
0.56385
-0.59898
0.739416
0.740508
0.201469
0.545547
0.485828
0.654589
-0.225857
0.22
0.19
-0.9
0.825259
-0.734741
-0.68855
-0.348701
0.629246
0.23272
-0.376458
0.951586
-0.782606
-0.466954
0.531569
-1.06421
0.55578
0.860499
-0.0697604
0.714389
-0.523764
-0.211574
-0.175267
-0.76822
0.50377
-0.688508
0.438627
0.995228
-0.607906
0.192219
-0.0457857
-0.62
0.08
-0.354741
0.455259
-1.03285
-0.327982
-0.315013
-0.428053
0.757349
0.342366
-0.463645
0.843596
-0.832879
-0.815818
0.223701
-0.887121
0.433823
-0.326177
-0.336281
-0.456166
-0.80637
0.638757
0.0932159
0.0357256
0.111807
-0.816397
0.857466
-0.115503
-0.984295
-0.028362
0.21
-0.85
-0.00474091
0.395259
-0.672719
0.397624
-0.485538
-0.932096
-0.812054
-0.574275
0.169619
0.936962
0.248032
0.554539
-0.966114
0.502296
-0.73543
-0.757082
0.556592
0.916592
0.337355
-0.963039
-0.365795
-0.947769
0.385006
0.132875
0.572732
0.688368
-0.244558
0.211638
-0.83
0.87
-0.072848
0.197149
0.202988
-0.847188
-0.973113
0.223009
-0.345182
0.672457
-0.349589
0.0333395
0.389139
-0.724353
-0.537669
0.90238
-0.827438
-0.899212
0.414343
0.902628
0.660191
-0.307184
0.982708
-0.384636
-0.0144685
-0.617667
-0.169491
0.523377
-0.159323
-0.198469
-0.67
-0.81
0.827305
-0.102999
-0.969353
-0.766218
-0.651216
-0.72135
0.0512011
0.109745
1.01985
0.313052
-0.659597
-0.823909
-0.934611
-0.926468
-0.517436
-0.489203
0.941821
-0.77729
-0.0875173
0.321348
0.529445
-0.360611
0.57877
-0.554199
-0.686553
-0.254324
-0.560306
0.601536
-0.97
-0.49
0.323828
-0.149673
0.696972
-0.00971925
0.37651
0.530498
-0.681809
0.0394462
0.644289
0.211801
-0.255168
0.406675
0.60898
0.265499
0.741532
-0.911462
-0.832113
-0.322517
-0.234552
-0.913118
0.20167
0.137422
-0.529209
0.223897
-0.42473
0.0556715
0.595499
-0.680651
0.61
-0.81
-0.386266
0.640248
0.249828
0.669017
0.520027
0.345103
0.00482294
-0.0567384
-0.251086
0.743242
0.527371
-0.0560128
-0.683343
0.651533
-0.560497
-0.136295
-0.358421
-0.0557063
0.378699
0.79183
0.92271
-0.323655
-0.629358
-0.87139
0.00783244
0.129452
0.908577
-0.970634
0.92
0.72
0.933664
0.38369
-0.52053
0.500507
-0.253815
-0.046554
0.168049
0.720991
0.691576
-0.346979
-0.422583
-0.94669
1.03702
-0.0746742
0.754835
0.354491
-0.813748
-0.907435
-0.624852
0.62646
0.578787
0.994766
0.700735
-0.965576
0.837848
0.238751
0.569137
0.950582
0.55
0.15
-0.273047
-0.643071
0.532901
-0.0218458
0.0919669
-0.784572
0.911611
0.521344
-0.473784
-0.629811
-0.444791
0.628872
0.527402
-0.752599
0.137422
0.137422
-0.132578
0.00742909
0.335117
-0.513147
-0.093654
0.0973918
-0.805465
0.13208
0.736117
-0.99597
-1.04376
0.824568
0.2
-0.22
-0.703064
0.756942
0.61455
0.361205
-0.873853
0.165134
0.353579
0.00704825
0.0177157
0.23938
0.332595
-0.682954
-0.724735
-0.434654
0.265346
-0.91467
-0.892155
-0.734464
-0.233366
0.436531
0.18773
0.804907
-0.621125
0.166204
0.211827
0.670979
-0.332755
0.864554
-0.3
0.61
0.825103
-0.804945
0.525421
-0.00595529
-0.643827
-0.00585421
-0.313332
-0.953508
0.298092
-0.572661
0.700536
0.973099
0.118354
-0.451198
-0.386809
0.0738646
0.899476
-0.976158
-0.890778
-0.306417
-0.153021
-0.794842
0.782291
0.924498
-0.60633
0.492875
0.486679
-0.228107
0.38
0.48
0.499999
0.925283
0.65693
0.0510266
-0.16129
-0.722273
0.590208
-0.723924
-0.0234199
-0.732443
0.57862
-0.432697
-0.700821
-0.897368
0.477915
-0.8582
0.392967
0.864724
0.301316
-0.108867
-0.310014
0.977978
0.831316
0.0235566
-0.329124
0.633271
-0.494247
-0.72
0.1
-0.5
-0.74
-0.994741
0.726977
0.386961
0.295055
-0.0997069
0.194548
0.0149351
0.502399
-0.32012
0.193179
-0.432195
0.342596
-0.66004
-0.874056
-0.663705
-0.179074
0.150716
-0.413989
0.165451
0.156198
0.727563
0.557562
0.457561
0.794562
0.611893
0.421839
-0.55
-0.27
0.3
0.13
-0.62
-0.28
-0.36
0.944289
0.464236
0.0556429
0.393172
0.133306
0.70997
-0.0135912
0.466664
-0.0948178
-0.602499
0.847347
-0.90274
0.527407
0.048951
-0.0706823
-0.370075
-0.979999
-0.3
-0.21
0.12
-0.24
-0.57
-0.78
-0.75
-0.34
0.86
0.72
0.35
-0.92
0.62
0.71
-0.24
-0.579915
0.720085
0.980085
-0.999915
-0.709915
-0.769915
-0.289915
-0.65
-0.13
-0.42
-0.69
0.87
0.7
0.21
-0.86
0.22
-0.31
-0.5
-0.79
0.32
-0.57
-0.37
0.38
-0.47
-3.56165
0.804168
-1.09314
-2.65745
-0.801103
2.5529
0.19908
0.857705
3.3615
-3.73131
-0.755099
-0.827639
0.895057
-0.324888
0.35362
0.613905
-0.33498
0.707446
1.41886
-0.67323
-0.240953
-4.43667
2.0343
1.33697
0.489378
0.564156
0.781959
2.88367
-0.14935
0.718846
-2.8725
-1.07637
1.13241
-0.287039
0.264694
-8.54524
-9.61261
-3.05855
2.84355
-2.74741
-5.73218
2.79321
-9.16112
-2.97392
1.33928
-6.97928
-4.04282
-0.895596
