0.71
0.53
0.8
-0.67
0.51
0.28
-0.41
-0.72
-0.78
-0.38
0.04
0.53
0.43
0.03
-0.55
-0.07
0.82
0.72
-0.22
-0.415855
-0.245855
-0.37
-0.14
0.25
-0.39
0.5
0.24
0.46
0.46
-0.46
-0.36
-0.78
-0.09
0.37
-0.03
0.58
0.08
-0.49
-0.67
-0.78
-0.58
0.46
0.39
-0.15
-0.84
-0.72
0.0705415
0.833178
0.489738
0.366199
0.551415
-0.134344
0.362094
-0.722574
-0.228723
-0.0700618
0.509945
-0.122948
0.09
0.42
-0.98
-0.28
-0.12
-0.57
0.51
0.26
-0.51
-0.72
0.81
-0.93
0.139946
0.909946
-0.240054
-0.560054
0.861654
-0.885324
0.133858
-0.592679
0.408918
-0.652851
0.94985
-0.17423
-0.371076
-0.739649
0.99598
0.758595
0.190698
0.904804
0.30704
0.71704
0.49
-0.43
0.16
0.3
0.21
0.8
0.35
-1
0.22
0.06
0.399946
0.569946
-0.450052
0.0899485
0.242554
-0.143019
0.921068
0.273934
0.819704
-0.388789
0.0623435
-0.536319
0.412527
0.94121
0.20255
-0.0354345
-0.454669
-0.454269
0.0370684
-0.642932
0.12
-0.96
-0.86
-0.82
-0.99
-0.25
0.79
-0.27
-0.580054
0.0999485
0.509948
0.539949
0.49247
0.793054
-0.704926
-0.343414
0.08628
0.0484422
-0.545339
-0.73343
0.661964
-0.160009
0.982182
-0.801087
-0.37484
-0.160164
-0.639924
-0.192493
0.987068
0.547068
0.97
-0.74
-0.44
0.17
-0.85
-0.17
0.769946
0.799946
0.749946
0.140014
0.282473
0.512473
0.0724738
-0.987005
-0.154985
-0.46683
-0.790427
-0.607356
0.324975
-0.566909
-0.23959
0.196842
-0.84084
0.487023
-0.860096
-0.247147
-0.316175
-0.174158
-0.241997
-0.15293
-0.87
-0.4
0.37
-0.58
0.77
0.94
-0.91005
-0.249982
0.320603
-0.959398
0.143058
0.733056
-0.647006
0.585012
-0.474988
-0.235699
-0.378602
0.0933155
-0.116352
0.475461
0.171324
0.408663
-0.456133
-0.29195
0.605657
-0.822472
0.0607143
-0.583041
-0.271432
-0.69293
0.49
-0.45
-0.41
0.14
0.24
0.810004
-0.870044
-0.839398
-0.746942
-0.516944
0.530063
-0.319937
-0.649999
0.452606
-0.397394
-0.229621
-0.797341
-0.235179
0.873667
-0.695375
-0.103697
-0.765094
-0.607143
-0.0612901
-0.793539
0.0785011
-0.768638
-0.955152
-0.35534
-0.65293
-0.79
-0.72
0.32
0.33
-0.99
-0.859996
0.510018
0.210657
-0.819349
0.140648
0.170002
-0.359999
0.0600006
0.481708
0.942606
0.910378
-0.18771
0.524814
0.189648
-0.783859
0.051331
0.186741
-0.829189
-0.443867
0.400517
0.362059
0.0327262
-0.860553
0.0287184
0.73707
-0.09
0.5
0.21
-0.59
-0.579997
0.930072
-0.909984
0.190651
0.370066
-0.76
-0.359999
-0.14
0.35
0.0117076
0.172605
-0.879609
-0.453736
0.716367
-0.313076
-0.901234
-0.39899
0.240754
0.662221
0.543231
-0.0148426
0.563421
0.381611
1.04372
-0.597601
-0.96293
-0.7
-1
-0.72
0.92
7.63659e-006
0.830651
0.723002
-0.899934
-0.819934
0.420001
-0.66
-1
-0.830043
0.409957
-0.497424
-0.810786
0.587691
0.198704
0.0194886
-0.144111
0.658384
0.643898
0.838857
-0.777785
-0.313349
0.0190606
0.773825
0.0543527
0.599275
0.627075
-0.99
0.39
0.72
-0.39
-0.259992
-0.0994018
-0.609404
-0.299937
-0.999938
-0.450043
-0.650031
0.232366
0.872367
-0.250315
0.562291
0.270499
-0.193961
1.02475
0.30949
-0.198573
-0.925338
0.356377
0.475632
-0.616992
-0.868615
0.752771
0.715629
0.709156
-0.771237
-0.432926
-0.96
-0.51
0.83
0.0100001
0.690009
0.0216129
-0.785709
-0.146275
0.707607
0.267551
0.0546991
-0.974383
-0.627128
0.892825
0.313653
-0.423556
-0.164211
0.346233
0.132192
-0.374123
0.0124113
0.912087
-0.878928
0.0565022
-0.458942
-0.587106
0.966667
0.314232
0.986097
0.607075
-0.93
-0.22
-0.519996
0.811017
-0.658083
0.357008
-0.69682
-0.0725599
-0.360431
0.690939
0.510887
0.190611
0.528683
0.870782
0.0511777
0.273895
0.741524
0.736877
-0.447942
-0.762101
-0.898721
0.783225
-0.893465
-0.0373165
-0.979591
-0.264515
0.244759
-0.386893
-0.284338
0.0386531
-0.58
0.5
0.651017
-0.758983
0.226071
0.587098
0.157752
-0.638511
0.317723
-0.78264
-0.529645
-0.876286
-0.181672
0.832694
-0.876544
0.13356
-0.120538
-0.508262
-0.268214
-0.762253
-0.00281625
-0.135623
-0.48738
0.716574
-0.817273
0.804427
-0.334827
-0.233385
0.601255
-0.221346
0.44
0.231013
-0.548983
0.909175
-0.433366
0.154616
-0.842211
-0.362108
0.938274
-0.258474
0.186687
0.38764
-0.808489
-0.288539
-0.0736023
0.695441
0.79872
0.202348
0.0420703
0.144052
-0.269243
0.817833
-0.928402
-0.153398
-0.522494
0.64348
-0.282418
0.258579
0.335125
0.797083
0.0810133
-0.29748
-0.532047
0.362245
0.143111
0.961724
1.00828
-0.201612
-0.434836
0.283582
-0.204501
0.263057
0.421058
0.134928
-0.488509
-0.180741
0.291903
0.972717
0.426217
0.938769
0.650376
-0.908891
-0.32193
-0.212444
-0.464062
-0.615524
-0.374724
0.995176
0.532752
0.20705
-0.118987
0.224251
-0.837939
0.141746
-0.44992
-0.0277853
-0.538251
-0.382689
-0.59887
-0.809021
-0.0289595
0.801172
0.411329
-0.189516
0.590413
-0.851942
-0.158901
0.358444
0.875291
0.562728
0.362685
0.426336
0.405589
-0.0232396
-0.494061
-0.00706102
-0.789159
-0.339399
0.420684
0.80705
0.152528
0.975274
-0.830648
-0.142365
0.067305
-0.603898
-0.0797194
-0.21419
-0.415404
0.864703
0.245241
0.0353669
-0.0845759
0.545423
-0.534579
-0.524579
0.265338
0.592677
0.750468
0.914524
-0.834826
-0.520404
-0.426823
-0.963423
-0.305643
0.231941
0.850608
0.679009
-0.69295
0.96705
-0.552121
-0.0639506
0.595443
0.108531
0.899472
0.408564
-0.847822
-0.132986
0.0747123
-0.304189
0.616222
-0.103713
-0.0837125
-0.263712
-0.0137129
-0.864568
-0.244565
0.98269
-0.339459
-0.795417
0.756199
-0.650509
-0.406204
-0.430572
0.434396
-0.520479
-0.289819
0.035784
-0.932953
-0.0129527
0.863871
-0.189506
-0.491638
-0.56667
0.945115
0.486275
0.148364
0.528435
-0.471782
0.468697
-0.723748
0.506253
1.04631
-0.913695
0.736305
0.526306
0.996305
-0.607377
0.550878
-0.241816
-0.932836
-0.980382
-0.850176
-0.55762
0.825017
-0.99985
-1.02981
0.266682
-0.492949
0.587051
0.797867
-0.290031
-0.770814
0.853557
0.235425
-0.956602
0.0177217
0.618712
0.948806
0.0392832
0.658722
0.876316
-0.31369
-0.683695
-0.233692
0.766305
-0.0136931
0.170213
-0.0269866
-0.242154
-0.126221
-0.117258
-0.802499
0.0529364
0.484179
-0.02089
-0.734955
-0.353335
-0.262948
0.667052
-0.219365
-0.258
0.0279767
0.165115
-0.716183
1.02345
-0.564572
-0.451294
0.789125
-0.710665
0.248729
-0.661275
0.966316
0.196318
-0.763747
-0.743747
-0.682368
-0.837437
-0.126174
-0.50142
-0.902388
-0.155679
0.336895
-0.0927129
0.814182
0.127415
0.434974
0.927573
0.187052
0.417052
-0.656021
-0.261935
-0.654901
0.73268
-0.264242
0.0935595
-0.394573
-0.681954
-0.260876
0.689254
0.949269
0.258696
0.588722
-0.681278
0.94866
0.258663
0.315223
-0.257432
-0.360695
0.774526
0.573522
-0.978585
-0.772077
0.0497432
-0.801764
0.0990935
0.930753
-0.391767
0.37
-0.96
0.449273
0.425234
-0.680516
1.00267
0.761492
-0.814382
0.605128
0.284731
-0.401471
-0.911417
0.368679
-0.8313
0.25871
0.268722
-0.181271
0.377692
-0.217378
1.01246
-0.594701
0.215171
-0.339783
-0.742829
0.605631
-0.141523
0.936804
-0.918196
0.214603
0.927084
0.94
0.77
0.255268
-0.0247159
-0.218332
0.156726
0.421186
0.336059
-0.644326
-0.0537204
0.0479904
-0.291844
0.338573
0.398593
0.918657
0.0386601
0.147623
-0.771294
0.727696
0.0101795
0.0815044
0.749939
0.111114
0.797973
-0.251922
-0.655946
-0.92496
-0.855365
-0.935252
-0.322939
-0.19
-0.34
-0.0342332
0.531877
-0.288141
0.201992
0.0758687
-0.642557
0.0404017
-0.273993
0.596934
0.459475
-0.910255
-0.194251
-0.564221
0.779515
-0.516168
0.66074
-0.270558
-0.71593
-0.589877
-0.72043
-0.325001
-0.41006
0.253779
-0.404895
-0.713113
0.775214
0.888113
0.63
0.91
0.42
0.321506
-0.285069
0.503889
0.338226
-0.05115
-0.37195
1.05198
-0.654879
-0.025195
-0.527585
-0.292771
0.287141
-0.29478
-0.216967
0.25309
0.396021
-0.507488
-0.311462
0.190204
0.211062
-0.144942
0.0658357
-0.333546
0.656455
0.57004
-0.729991
0.620009
-0.63
0.75
-0.95
-0.95
0.901506
0.143085
0.115404
0.0524875
0.875349
0.443722
-0.0411236
0.691577
0.429882
0.743451
0.313501
-0.813683
-0.62651
-0.503632
0.113349
-0.186654
-0.316655
-0.27396
-0.753845
-0.542964
-0.99
0.11
0.66
0.58
0.81
-0.3
-0.09
0.48
0.76
0.87
-0.47
0.52
0.8
0.503084
0.543084
-0.493771
0.0862295
0.976228
-0.855714
-0.165817
0.048881
-0.30345
0.850227
0.65
-0.23
0.72
0.4
-0.65
-0.67
0.53
0.97
-0.3
-0.12
0.69
0.24
-0.47
-0.67
-0.26
-0.79
-0.47
0.47
-0.58
-0.03
-0.11
0.33
-0.37
0.79
-0.19
-0.01
-0.35
-0.74
-0.92
0.04
0.04
0.81
-0.06
-0.12
-0.96
-0.138148
0.441852
-0.9
-0.85
0.22
-0.06
0.16
0.11
-0.2
-0.43
-0.84
-0.45
0.98
0.16
0.33
-0.46
0.52
-0.32
-0.27
0.76
-0.49
0.15
-0.54
-0.32
-0.51
-0.27
-0.0197991
-0.29924
-0.0594833
0.401351
-0.245719
0.894372
0.241408
-0.0850469
0.0905858
-0.168782
0.603534
0.245715
-0.338865
0.41
-0.45
0.98
-0.04
0.95
-0.38
-0.96
-0.4
0.52
-0.15
-0.93
-0.43
-0.752001
-0.302001
-0.882001
0.387999
0.3282
0.338886
-0.682207
-0.769476
0.7379
-0.561978
0.340261
0.425182
0.423516
-0.702654
-0.665162
0.869988
-0.190584
0.858172
0.386788
0.596787
-0.2
-0.19
0.03
0.55
0.43
-0.57
-0.23
-0.07
-0.84
0.84
0.398569
0.228569
-0.664054
-0.384054
-0.454098
-0.733274
0.382344
0.639951
0.150542
0.185341
-0.820991
-0.410355
0.285421
0.270198
0.650599
0.129443
-0.0909874
0.672929
0.0255096
-0.0144904
0.19
0.02
0.03
-0.53
0.65
0.44
0.65
-0.309891
0.978277
-0.593825
-0.86708
0.602939
0.0141271
-0.605023
0.00824672
-0.0324574
-0.109898
0.935864
-0.816295
0.983322
0.35508
-0.865855
1.03688
0.629165
-0.0663448
-0.652174
-0.916148
0.896541
0.0855095
-0.0644904
-0.45
-0.57
-0.89
-0.37
0.38
-0.0298354
-0.481744
0.000292755
-0.355689
0.711945
0.318786
-0.808689
-0.884806
0.595827
-0.323422
0.239421
0.528817
-0.483681
-0.422492
-0.690709
0.0846262
0.334231
-0.507451
-0.906588
0.563973
-0.257603
0.758574
0.5777
-0.678942
0.821052
-0.25
0.3
-0.31
0.57
-0.2
-0.35982
0.0203028
0.980144
0.985232
-0.384404
-0.649644
0.991173
-0.159338
0.497717
-0.323802
1.01945
-0.0527476
0.785223
0.537642
-0.599812
-0.0722135
-0.260512
-0.675022
-0.366419
0.564332
0.418145
0.48502
-0.912633
-0.466751
-0.98501
-0.78
0.42
-0.5
0.33
0.06
0.532557
0.542769
0.409525
-0.87315
0.210911
0.122187
-0.648673
0.700835
0.247586
-0.902417
-0.819467
-0.024212
0.843231
0.769249
0.522716
-0.382854
0.710096
0.0589972
-0.427929
0.129093
0.739888
0.287102
-0.693432
-0.496423
0.0552914
0.59
-0.58
0.97
-0.54
-0.649835
0.364718
0.331502
0.190996
-0.303813
-0.455327
0.0517456
-0.32325
0.193258
0.662357
0.371005
0.184995
0.583957
0.354785
0.574926
-0.689659
-0.17795
-0.297444
-0.226902
-0.320755
0.114683
-0.506427
-0.75337
-1.03226
-0.746189
0.365345
0.74
0.14
0.16
-0.75
0.250178
0.942773
1.06352
-0.744033
0.903941
0.9208
0.679711
0.954077
0.769461
-0.0185225
0.767036
0.64023
-0.0264855
0.900388
-0.908366
0.817813
0.23357
0.854198
-0.39103
0.97884
-0.704453
0.774712
0.173999
-0.349935
-0.909602
-1.01466
-0.43
0.03
-0.72
-0.749838
-0.52716
0.226478
0.620918
1.01546
-0.726105
-0.230234
-0.200471
-0.336965
0.424152
0.341493
0.00769922
-0.469805
-0.446084
0.173623
0.811461
0.495812
0.606875
0.231548
-0.752713
-0.656454
-0.56311
0.820651
0.322771
-0.514794
0.480025
0.664644
0.51
0.42
0.12
-0.419839
0.614292
0.477172
0.703959
0.31545
-0.176477
-0.710168
-0.415746
-0.0826805
-0.162324
0.660611
0.492965
0.10109
-1.00378
-0.711563
0.3342
-0.717772
0.490026
-0.542463
0.957532
-0.482941
0.440976
0.371116
0.17881
0.234498
0.0377827
-0.545356
-0.66
-0.68
0.64
-0.159825
0.232051
-0.135633
0.874211
0.84328
-0.736393
-0.624018
-0.221942
0.675231
-0.436403
0.259466
-0.0169604
-0.448119
0.348047
0.809818
0.420324
0.0668172
-0.41263
-0.279667
0.927333
0.833604
0.937282
0.826306
-0.930305
-0.167817
0.946932
0.424643
-0.63
-0.66
0.152209
0.73279
0.483779
0.109574
-0.777095
0.741502
-0.112277
-0.477466
-0.101858
-0.0214546
-0.608188
-0.718879
0.980437
-0.332458
-0.904199
0.634802
-0.0243638
0.801276
-0.128695
-0.113103
-0.449534
0.0115314
0.00734639
-0.48173
-0.26035
0.0568681
0.866543
-0.435338
0.83
0.84
-0.577393
-0.247346
-0.404334
0.0661237
-0.56064
0.121072
0.430648
-0.270445
-0.0317161
0.558217
-0.256935
0.777308
0.584868
0.184992
0.215058
-0.840673
-0.98162
0.284123
-0.396679
-0.487425
0.943855
-0.417422
0.793645
-0.517582
0.486493
0.0244183
-0.232075
-0.215237
-0.52
0.560398
0.5226
-0.986552
-0.542573
0.173245
0.790225
-0.955187
-0.291793
-0.865663
-0.330076
-0.694442
-0.436926
-0.192381
0.947174
-0.875173
0.540025
0.0115299
-0.276681
0.237577
0.654991
-0.52112
0.033674
-0.469618
-0.184
-0.539368
0.674835
-0.462527
0.73141
-0.64578
0.630398
0.0603988
0.749336
-0.993233
0.192412
0.820153
-0.338138
-0.23041
-0.453881
-0.510015
0.782852
0.467528
-0.594195
-0.965487
-0.534043
-0.932833
-0.867399
-0.772603
0.162171
0.458861
-0.285813
0.0552979
0.0573077
0.673438
-0.647848
0.933677
0.0721203
-0.499321
0.0417911
0.931112
0.390391
-0.189605
0.57778
0.105559
0.882086
0.551416
-0.725847
0.810376
-0.307152
-0.304805
-0.529581
-0.487432
-0.576676
-0.230951
-0.418874
-0.365375
0.824322
-1.04121
-0.874672
-0.703915
0.879893
0.780075
-0.481895
0.710291
-0.205536
1.05257
0.746578
0.710258
0.291708
0.00111982
0.737127
0.84754
-0.175523
0.211967
0.359316
0.639778
0.660864
-0.79019
-0.318571
0.808241
-0.335834
0.239838
-0.923782
-0.706049
-0.489745
-0.522472
-1.13483
-0.383126
-0.941305
-0.0119933
0.908385
0.269165
0.0991191
1.08325
0.402245
0.219728
-0.366044
0.604881
-0.497039
-0.127031
-0.547133
-0.558263
0.39926
0.171987
0.697586
0.603306
0.500228
0.943628
-0.136376
-0.800309
-0.254447
0.089346
0.359504
-0.710504
0.159489
-0.184542
0.355448
-0.395327
0.517079
-1.05518
-0.27557
-0.746226
0.71519
0.735284
0.174525
0.482643
-0.74633
0.313804
0.397117
0.607124
0.709546
-0.790287
0.00797505
-0.854424
0.713896
-0.746618
0.748704
-0.491042
-0.0287022
0.289491
-0.0210214
-0.351994
-0.0307691
-0.831459
0.488248
-0.871656
-0.42213
-0.655679
-0.737989
0.646335
-0.926938
-0.164735
0.492797
-0.407631
0.0465761
0.352006
0.387287
0.602789
-0.184821
0.715186
0.905638
-0.951056
0.429379
0.749606
-0.613585
-0.597765
-0.0731583
-0.90335
-0.180868
-0.769475
-0.0541887
0.813879
0.54967
-0.835857
-0.338177
-0.348095
-1.12067
0.705071
0.134627
-0.610453
0.772021
0.790751
0.256038
0.16492
-0.895106
0.681363
-0.592196
-0.230511
-0.344821
-0.914813
0.125336
0.820494
0.324736
0.296733
0.279634
-0.20041
0.672597
0.140766
0.592136
0.372782
0.0817754
-0.352316
0.382423
0.629147
-1.08308
-0.71235
-0.894623
0.253603
-1.02622
0.578746
0.808088
-0.973958
0.414388
-0.264335
-0.472574
-0.697737
-0.0201208
-0.442738
-0.494821
-0.654813
-0.16793
-0.998387
0.806147
-1.03445
0.0795055
0.516931
0.883595
0.190935
-0.249684
0.811879
-0.643331
-0.528575
-0.228239
-0.511485
0.477946
0.0879421
0.325838
0.75885
0.145555
-0.430212
0.0308898
-0.467892
0.803761
0.16976
0.508311
0.432365
0.586281
-0.205219
-0.08
0.85
0.892914
0.342166
0.854751
-0.675139
-0.355771
-0.126557
-0.126304
0.622271
0.194803
0.713105
0.650927
-0.49079
-0.148217
-0.96419
0.26036
0.256482
0.568361
0.851464
-0.883685
0.0865624
-0.0383436
0.787626
-0.335885
-0.993698
-0.16184
0.0863653
0.58534
0.370365
-0.61
-0.45
-0.277456
0.219821
-0.539422
-0.709731
-1.00101
-0.518839
-0.662865
-1.04096
-0.817269
-0.636071
-0.864291
-0.928623
-1.0137
0.0432684
0.329861
-0.558948
-0.286575
-0.21361
0.649849
0.865843
-0.74438
0.446456
0.418156
0.500616
0.140738
0.904817
-0.298695
-0.418093
-0.68
0.75
0.737379
-0.974506
0.238348
0.0177198
-0.0653821
0.620187
-0.0601376
0.585959
0.775145
0.213193
0.413942
0.364672
0.794375
0.713455
-0.283512
-0.951108
0.58345
0.375825
-0.342287
0.119643
-0.566312
0.109284
-0.555145
0.527374
-0.608032
0.87753
-0.399053
0.61
0.32
0.11
0.570001
0.456933
0.943213
0.799111
0.848914
-0.914507
-0.0274065
0.905408
0.517415
-1.00401
-0.300458
-0.223081
-0.302402
0.477111
-0.105062
0.485007
-0.707315
0.737313
0.396669
1.01991
-0.857029
-0.710704
-0.50082
0.855391
-0.061207
0.256728
-0.441005
0.55
0.46
0.55
-0.22
-0.689999
-0.169973
-0.633463
-0.881715
0.886186
0.881437
0.57992
-0.114908
0.912117
-0.0367802
0.258951
0.713205
-0.542727
0.0347454
-0.0398495
0.589224
1.02529
0.515666
0.000999304
-0.139962
0.84
0.46
0.01
-0.02
-0.57
0.06
0.82
-1
0.59
-0.25
0.8
-0.64
0.88
-0.599973
-0.439973
-0.000439534
0.949561
0.449561
-0.864638
-0.594811
0.175166
0.785106
0.975455
-0.15
0.71
-0.31
-0.16
-0.31
0.02
0.24
0.16
0.94
-0.63
0.85
0.95
-0.17
0.84
-0.9
0.38
0.2
-0.13
0.16
-0.71
0.74
-0.63
0.22
0.81
-0.29
-0.52
0.33
0.97
-0.69
0.64
-0.8
-0.96
-0.87
0.17
-0.62
-0.44
-0.3
0.28
0.38
0.3
-0.4
-0.98
-0.55
-0.79
0.11
-0.05
0.64
-0.12
0.64
0.49
0.78
0.7
-0.22
0.38
0.17
-0.22
0.3
0.24
-0.64
0.91
0.68
0.84
0.63
0.18
0.830001
0.787334
0.377348
0.517305
-0.949073
0.0636863
0.27395
0.384381
-0.95334
-0.986903
-0.08
0.93
-0.1
0.95
-0.89
-0.5
0.01
0.99
0.84
-0.74
-0.17
0.84
0.350051
-0.039949
0.960051
-0.719949
-0.879949
0.750051
-0.129949
-0.549937
-0.722869
0.205623
0.767931
0.941401
-0.257526
0.597619
-0.885693
-0.546274
-0.101766
0.52739
-1.01907
-0.40907
0.75
-0.06
0.76
-0.08
-0.75
-0.66
-0.5
-0.96
0.56
-0.05
0.650051
0.650051
0.930063
0.0600634
-0.329937
-0.819937
0.570063
-0.719935
-0.872862
0.398364
-0.682567
-0.751193
0.341982
0.569895
0.295488
-0.967104
0.0330115
-0.900499
0.834966
-0.485035
-0.14
-0.2
-0.92
-0.47
-0.42
0.56
0.64
0.85
0.080076
0.640088
0.190249
0.900248
0.330191
-0.404232
0.634489
0.25449
-0.42551
-0.54551
0.988285
-0.461598
0.637523
0.111926
-0.586467
0.0104799
-0.807272
0.0850309
-0.241132
0.260971
0.694966
0.604966
0.18
-0.85
0.82
0.65
-0.63
-0.859975
-0.849924
-0.0197688
0.0902312
0.202824
-0.482874
0.117126
-0.973035
0.228232
0.876955
0.856955
0.656955
0.775655
0.263886
0.97122
0.0753277
-0.509063
-0.525091
-0.930499
0.211767
0.497416
-0.100653
-0.24034
0.293558
-0.416442
-0.34
0.95
0.03
-0.86
-0.52
-0.499975
-0.208337
0.880056
0.952257
0.233368
-0.343991
-0.0348901
1.01504
-0.224543
-0.0145468
0.215448
-0.464551
0.836881
0.11662
0.882433
0.0947819
-0.729523
-0.20119
-0.825305
0.0811275
0.0802103
-0.858579
-0.432495
0.150204
-0.189796
-0.7
0.71
0.3
0.99
-0.57
-0.631617
-0.669057
0.412241
0.58386
-0.0616292
0.245513
0.93546
0.0554281
0.0354282
-0.884572
0.265423
0.454297
-0.894267
0.245482
0.391132
-0.0447652
-0.336092
0.803951
0.485325
0.557293
0.462058
0.156638
0.413657
0.748165
0.800211
-0.76
-0.64
-0.89
-0.9
0.310025
-0.081617
-0.68904
-0.292412
-0.220729
0.936949
0.315428
-0.734573
0.785422
0.844296
-0.165703
-0.125703
-0.945703
0.860005
-0.528813
0.346812
-0.829052
0.903395
-0.978341
0.182137
-0.66187
0.424274
0.137217
-0.223935
0.266603
-0.821365
-0.72
0.13
-0.88
-0.72
-0.878539
0.569845
-0.584757
-0.770735
1.0071
-0.934521
-0.454578
-0.494578
0.867903
0.92
0.796063
-0.621022
0.870005
-0.0499951
0.319755
0.83538
-0.239053
0.34037
0.809468
0.252189
-0.0445498
-0.0607968
0.106565
-0.565182
-0.393394
-0.291367
0.69
0.11
-0.26
-0.049948
-0.0801618
-0.792006
0.758193
-0.679536
0.779508
0.427898
0.193961
0.248536
0.677703
0.0388303
0.571745
0.251745
0.498838
0.447711
-0.367426
-0.248544
0.929067
-0.800088
0.411749
0.732123
-0.84735
-0.272865
0.0536286
-0.619003
0.205752
0.0277919
-0.8
0.96
0.95
0.810052
-0.620181
0.198051
-0.53068
0.715024
-0.215865
-0.0168741
-0.316997
-0.931789
0.672106
-0.277894
0.392106
-0.433953
-0.54395
-0.463949
0.414136
-0.209929
-0.890166
0.923048
-0.084138
0.0990541
0.584458
0.946919
-0.606889
-0.365928
-0.654253
-0.122208
-0.73
0.91
-0.97
0.820052
-0.43017
-0.229467
-0.801287
0.141776
0.740194
-0.311996
-0.0242161
-0.640562
-0.0455236
-0.0631524
0.474658
-1.00585
0.372543
-0.966139
0.880746
0.599529
-0.644425
-0.253832
-0.187131
-0.903646
0.270085
-0.475585
0.156825
0.907989
0.683626
-0.284325
0.79
0.36
0.0283061
-0.549161
-0.344867
0.851191
0.477467
0.652475
0.551867
0.132353
0.268368
0.0984828
-0.393563
-0.116761
0.431466
-1.04753
0.511469
-0.301046
0.703
-0.279092
-0.766278
0.0953397
-0.0818485
0.906415
0.831399
0.674723
0.312316
-0.521491
0.557546
0.379595
0.37
-0.68
0.588306
0.947537
0.835076
0.359636
-0.663481
0.6651
0.84456
0.569685
-0.388174
-0.259574
-0.37892
0.250111
-0.461739
-0.844496
0.144315
0.825293
0.515235
-0.819356
0.622401
0.913707
0.553599
-0.796549
0.289516
-0.136039
0.14327
-0.642901
0.449661
0.611713
0.39
0.1
-0.351379
0.675039
0.915186
0.714416
-0.878906
-0.175773
-0.356928
-0.385576
-0.993187
-0.0544528
0.131021
0.460711
-0.549702
0.955216
-0.348894
0.353655
0.43466
0.739867
0.11026
-0.477565
-0.633147
-0.157151
-0.556958
0.529621
-0.959414
-0.463108
0.42628
-0.291864
-0.42
-0.639996
-0.71604
0.506109
0.88769
0.491037
0.80789
0.810936
-0.116508
-1.03031
0.638767
0.123754
0.849337
0.455002
0.88132
-0.824183
-0.434249
0.738007
-0.459754
-0.500612
0.221768
-0.641984
-0.369273
-0.861745
0.864089
-0.888143
0.627877
-0.886944
0.346334
0.768194
0.667835
-0.792161
-0.954702
-0.852627
0.335298
-0.123087
-0.0135744
0.864102
0.0243218
0.506348
0.90681
0.549348
0.670712
-0.967061
0.954709
0.744908
-0.355585
0.544361
0.123298
-0.840827
-0.144059
-0.00265729
-0.215971
0.609496
-0.700604
0.340436
-0.114645
0.398783
-0.719385
-0.947524
0.402798
-0.187187
0.391527
-0.15578
0.280338
0.853709
-0.119331
0.361024
-0.977887
0.622499
0.492369
-0.347163
-0.35597
0.555859
0.347593
0.137593
-0.562692
0.907308
-0.261357
0.366309
0.529995
-0.897124
0.904273
0.688168
0.611612
-0.51655
-0.490865
-0.184786
-0.197794
0.422211
-0.0375592
-0.565372
-1.01891
-0.581362
0.326316
-0.247704
-0.975488
0.118079
-0.338951
0.125692
0.957787
-0.160462
0.90241
-0.70759
0.272409
-0.619478
0.720522
0.780237
0.0591397
0.508016
-0.126179
-0.963511
-0.432116
0.292286
-0.935151
-0.474721
-0.727888
0.558884
-0.596551
0.473454
-0.257045
-0.149728
-0.806508
0.66304
0.9454
0.268139
0.760616
0.219718
0.876323
0.771095
0.615252
-0.43475
0.375216
0.684085
0.714085
0.424084
0.464084
-0.225497
0.961628
-0.0199739
-0.764054
-0.337586
-0.229639
-0.567855
-0.628628
-0.936644
-0.564769
-0.800771
0.114106
-0.625889
0.198116
-0.152575
0.496231
-0.566958
-0.313667
0.525112
-0.752057
0.329985
0.844152
0.824253
0.634882
0.505278
0.215201
0.204074
0.0940734
0.674074
-0.335927
0.624086
-0.354532
-0.867815
0.127865
-0.797133
0.581446
0.439731
0.580849
0.322739
-0.810084
0.961719
-0.135737
0.904268
-0.161886
0.49825
-1.01645
-0.959412
-0.438768
0.155831
0.478819
0.105993
0.317479
-0.115797
-0.206334
-0.28065
-0.214562
-0.494562
0.0354248
-0.224576
0.0454247
-0.764557
-0.15318
0.977273
-0.589032
0.360654
0.383301
-0.157829
-0.299156
-0.181036
0.196541
0.74359
-0.485737
0.584268
0.643562
-0.426311
-0.930158
0.788174
-0.503146
-0.307121
-0.522597
-0.0203685
-0.821474
0.239394
0.249323
-0.105771
0.712233
-0.627767
0.0879242
0.597924
0.887781
0.719274
-0.743081
0.189729
-0.424413
0.227724
-0.232865
-0.795943
-1.02979
0.0393231
0.690801
0.685599
0.59
0.35
0.400658
0.232639
0.320195
0.624753
-0.305409
0.796428
-0.98908
-0.00758447
0.631138
-0.0839286
0.425227
-0.759975
-0.405497
1.007
-0.339114
-0.38598
-0.627533
0.272242
0.198334
0.0260112
-0.122333
-0.399295
0.88456
-0.668326
-0.424084
-0.483643
0.558574
-0.242411
-0.36
-0.43
0.334862
0.684862
0.646665
-0.687205
0.364287
-0.0280744
0.698658
-0.0650912
0.750108
0.394394
0.428378
0.485327
0.681657
0.561657
0.578219
0.738484
0.247548
-0.00292038
-0.473517
-0.408107
-0.723784
-0.234821
-0.0885879
-0.171113
-0.996923
-0.338337
0.565327
-0.545435
0.92
-0.7
0.610004
0.400005
-0.442234
-0.625942
0.737905
0.234704
-0.853045
-0.598838
-0.0398771
-0.594257
-0.00258734
0.843169
-0.936197
-0.455236
-0.318148
0.172814
-0.717568
0.00669443
0.512204
-0.910273
-0.353985
-0.176015
0.746414
-0.0945998
-0.216442
0.812677
0.60678
-0.89
-0.21
0.7
-0.649996
-0.539995
0.700319
0.222683
-0.566207
-0.961525
-0.0380433
0.875956
-0.860755
-0.685807
-0.960367
0.924384
-0.0563452
0.495912
-1.00566
-0.838757
-0.468072
-0.840163
0.386341
-0.622972
-0.374777
0.805696
-0.265931
0.358759
-0.466794
-0.879686
-0.061515
0.33
-0.95
-0.9
-0.04
0.250004
0.190005
-0.809995
0.600005
-0.829995
0.360073
-0.536522
-0.407075
0.939715
-0.662891
-0.250211
0.751592
0.49906
0.841333
-0.315055
0.781928
-1.01341
-0.749068
0.0811962
-0.686832
-0.04
-0.75
-0.23
-0.54
-0.79
0.79
-0.95
-0.45
0.4
-0.02
-0.18
0.51
-0.96
-0.879995
-0.629995
-0.699995
-0.739995
0.580005
0.0600049
-0.979995
-0.375704
-0.215704
-0.475705
-0.685704
0.0142955
-0.915704
0.644296
-0.79
-0.93
-0.76
0.53
-0.02
0.54
-0.92
0.46
-0.69
-0.13
0.62
-0.34
-0.81
0.52
-0.17
0.96
-0.28
0.85
-0.86
0.4
0.65
0.59
-0.59
0.01
-0.16
0.67
-0.1
-0.64
0.15
0.45
-0.17
-0.217283
0.822717
0.37
-0.29
0.58
-0.67
-0.64
0.49
-0.88
0.71
0.35
0.78
0.15
-0.98
-0.71
-0.57
-0.68
-0.1
-0.21
0.8
-0.59
0.3
-0.99
0.14
0.99
-0.59
0.79
-0.199982
-0.099949
0.983544
-0.670776
-0.385874
-0.713631
-0.26777
0.263069
0.0890456
0.957505
0.723219
0.807012
0.18
0.18
0.47
0.39
0.83
0.56
-0.99
-0.18
-0.31
-0.98
-0.84
-0.94
-0.366458
0.493542
0.703542
-0.626458
0.583542
-0.176235
-0.945979
0.23362
0.320401
-0.08036
0.270555
-0.490782
-0.203581
-0.245983
-0.618784
-0.231407
0.533435
-0.0803656
0.286712
-0.223287
0.27
0.88
-0.47
0.5
0.42
0.08
-0.2
-0.53
-0.61
0.62
0.806289
-0.853711
0.146861
-0.883139
-0.861969
0.417003
-0.122733
-0.526098
-0.430686
0.482877
-0.0694633
-0.681367
0.341308
-0.953301
-0.0242117
0.448772
-0.380934
-0.522455
0.604485
0.244486
0.71
-0.95
-0.47
-0.94
-0.73
-0.2
0.46
0.280416
-0.828493
0.191884
0.425601
0.50785
-0.561254
0.630824
0.456984
0.667474
0.45472
0.0936195
-0.101967
0.425736
0.207157
0.244171
-0.232773
-0.836419
0.945041
0.220885
-0.385188
0.457357
0.964485
0.934485
-0.77
0.93
-0.17
0.28
0.87
-0.616564
0.720154
-0.907137
0.0792454
0.157169
0.177234
-0.20146
-0.214601
-0.202354
0.931806
-0.447903
1.09131
1.04975
1.15817
-0.171637
0.8229
0.0156119
0.244526
-0.745192
0.27998
-0.107365
-0.659285
-0.236276
0.868361
-0.661638
-0.42
0.49
0.65
-0.78
-0.989665
0.400677
-0.432972
0.267924
-0.675895
-0.633575
0.0661067
0.0581419
0.652076
0.38611
-0.452581
0.506646
0.098827
-0.776967
-0.654497
-0.347763
-0.00831844
-0.233285
0.75089
0.765166
-0.880977
-0.837013
-0.204377
-0.351172
0.373201
0.273173
0.85
0.06
0.03
0.55
0.880335
0.762055
0.462954
-0.491312
1.0444
0.915939
0.968304
-0.723791
0.408748
0.684911
0.610475
0.22994
-0.0373637
0.837355
-0.459618
0.906128
-0.111023
0.860905
-0.238312
0.108036
-0.962907
-0.923246
0.854544
0.0834921
-0.191245
0.845806
-0.69
-0.47
0.61
-0.659665
-0.946229
-0.0415578
-0.38767
0.843642
0.180616
1.13304
-0.768138
0.0858552
0.925967
-0.58186
0.781173
0.893686
0.486765
0.389193
-0.77245
-0.0704681
0.482493
-0.511993
0.105708
0.742227
0.259302
-0.324534
0.057508
0.45807
-0.329932
-0.353032
0.38
0.38
0.49
-0.159665
-0.124601
0.469173
0.741026
-0.40175
0.189011
-0.00514237
0.437902
-0.351435
-0.0365812
-0.325302
0.261532
0.830048
0.948028
0.711003
0.565431
-0.133058
-0.449699
-0.429619
0.0373393
0.869441
-0.129067
0.328937
0.624209
0.868812
-0.888565
-0.965087
-0.13
0.97
0.71
0.710416
-0.881874
-0.174215
0.157846
0.676157
-0.682832
1.01398
0.556249
0.0725731
0.312645
0.843252
-0.148369
0.651386
-0.626861
-0.0710562
-0.0361474
-0.833409
-0.348524
-0.112508
0.385406
-0.928776
-0.30205
0.608451
-0.998514
0.637748
-0.760743
-0.862159
-0.03
-0.96
-0.0896652
0.300416
0.444172
-0.276506
-0.136494
0.306275
-0.599335
-0.483511
-0.986046
0.917975
0.12682
0.254933
0.734627
0.343068
-0.973032
-0.0292616
0.57731
0.963505
-0.30819
0.22456
0.776213
-0.624104
0.63688
0.0214092
-0.406706
-0.298981
-0.230691
0.787841
-0.42
-0.31
-0.559665
0.93194
0.812142
0.836436
-0.540327
0.26496
-0.382817
0.163155
-0.490015
0.743366
0.129273
0.310464
-0.152945
0.487377
0.590348
0.496078
0.774044
1.0411
-0.56176
0.822653
-0.754066
-0.14208
-0.740279
-0.968423
-0.585363
-0.0733613
-0.24852
-0.300734
0.31
-0.25
0.661577
-0.0856896
0.28197
-0.14973
-0.503216
-0.33447
-0.420267
0.292387
-0.274422
-0.711494
-0.256721
-1.00789
0.216619
0.0871107
-0.51952
0.424915
-0.314563
0.937181
-0.399956
0.577797
0.269804
-0.351199
-0.610071
0.632903
0.689712
-0.0552857
0.579618
0.00879118
-0.14
-0.27
-0.648757
-0.678551
0.0203581
-0.32203
0.294418
0.318468
-0.651074
-0.147148
0.51037
-0.508383
0.0370517
0.560462
0.232174
-0.0251141
-0.088622
-0.774435
0.960928
0.883438
-0.452031
0.113064
-1.0389
-1.02506
-0.592621
-0.968169
-0.109094
-0.923145
0.825464
-0.952742
-0.09
0.74
-0.835661
-0.167972
-0.217193
-0.182903
-0.209419
0.791662
-0.543606
-0.170806
0.134565
-0.442813
-0.791599
0.638757
0.635061
0.624616
0.341051
0.632151
-0.0633969
-0.31261
-0.165536
-0.306945
-0.342502
0.386095
0.327478
-0.443797
0.221892
0.153805
0.327069
-0.0684564
-0.319999
-0.0197708
-0.79271
-0.0472634
0.235862
0.604676
0.318226
0.745857
-0.462436
-0.684567
-0.99343
0.295567
-0.815844
-1.04866
0.406121
-0.353956
-0.647366
0.719355
0.750054
-0.182561
0.649319
0.589748
0.501307
0.186333
-0.872105
-0.285707
-0.276286
-0.831798
0.748644
0.575704
0.0343685
0.317309
-0.912987
0.297187
-0.816386
0.350555
-0.0725274
-0.379079
0.733852
0.61027
0.114652
0.814424
-0.278017
0.844615
-0.593741
-0.583628
0.71579
-0.25583
0.872165
0.387585
-0.911447
0.597942
0.232721
-1.20833
-0.228159
-0.612768
-0.133446
0.63513
-0.707218
-0.40009
-0.581099
0.0110926
-0.762247
-0.196667
0.0109027
0.35576
0.243121
0.585234
-0.47902
0.0566675
0.563928
0.402763
-0.262075
0.908078
0.648545
0.308546
-0.99146
0.0854642
-0.628896
-0.679
-0.520189
-1.04548
-0.573546
0.425703
-0.557842
-0.0117464
0.000359491
0.395269
0.958681
0.288736
0.496092
0.131038
0.411912
0.854446
0.186396
-0.797104
-0.732099
0.0117904
-0.688177
-0.152171
0.735785
0.917759
-0.314134
0.915502
-0.564498
-0.516444
-0.736325
0.326227
-0.127384
-0.478822
0.0862593
-0.105293
0.164338
-0.162531
-0.444544
-0.734167
0.315665
0.783381
0.0999242
0.459979
0.774688
0.688827
0.713172
-0.901377
0.141028
0.808076
-0.138595
-0.52188
-0.470801
-0.255028
-0.382825
0.755954
-0.574316
0.73488
0.263845
-0.587203
0.36901
-0.522051
-0.787829
0.0580374
-0.177301
0.494001
0.13661
0.61789
0.263474
0.246939
-0.366818
0.136689
0.50391
-0.0160353
-0.263986
0.0332611
0.914422
-0.561866
0.279889
0.0890872
0.505071
1.00475
0.582903
-0.390122
0.0539012
0.199143
-0.0536585
-0.18358
-0.72476
-0.154408
0.609134
0.504729
-0.517397
0.282512
0.11627
-0.411619
-0.926656
-0.136082
-0.305485
-0.185285
-0.908306
-0.560923
0.146157
-0.513788
0.102312
0.563224
0.0781248
0.279338
0.216647
0.783141
0.480031
0.00971897
-0.0293396
0.160904
-0.271435
0.89538
0.682518
-0.920561
0.423304
0.0606056
-0.919448
0.700073
-0.46418
-0.733196
0.521558
-0.283904
0.559133
0.645154
-0.523531
0.0751275
-0.994713
-0.80272
-0.153843
0.826212
-0.360373
-0.197754
-0.401438
-0.862851
0.818328
0.00702616
-0.458798
-0.580038
0.343539
-0.482364
0.353356
0.993396
0.470474
0.907692
0.705039
0.555039
0.824055
-0.185106
-0.803133
-0.0759534
-0.43214
-0.0119802
-0.82218
0.276247
0.665255
0.0209994
0.527481
-0.277318
0.57
0.54
0.942309
0.55115
-0.702252
-0.00442099
-0.465019
0.534828
0.460161
-0.384119
-0.31101
-0.293974
-0.575046
-0.705794
-0.798642
0.923163
0.257271
-0.648656
0.791608
0.911799
1.0105
0.720486
0.0424863
-0.660077
-0.335313
-0.379327
0.0680849
-0.249209
-0.547017
-0.227578
0.36
-0.33
0.758097
0.559542
0.503476
0.30843
0.21293
0.12694
-0.908624
-0.863116
0.552605
0.359872
-0.508834
0.846897
-0.338337
0.544389
0.376543
-0.0056231
0.784828
0.535156
0.472507
-0.809019
-0.774386
-0.0747376
-0.900693
-0.209761
0.232161
-0.930203
-0.783123
0.874651
-0.56
-0.93
0.522591
-0.837219
0.614646
0.335159
0.334402
1.02205
-0.140862
-0.0288826
-0.580867
0.0246689
0.0761271
-0.0889019
-0.769352
-0.245893
-0.918573
0.858991
0.655371
-0.685179
0.207824
0.61227
0.870266
0.0377302
0.559076
-0.245392
-0.625946
-1.01889
-0.159906
0.16
0.82
0.14
-0.169772
0.2126
-0.137263
-0.379112
-0.940165
0.265352
-0.237309
0.515691
-0.198174
0.586574
-0.0331496
-0.994015
-0.308837
-0.827302
-0.248241
-0.350591
-0.320052
-0.417031
-0.0154175
-0.386847
-0.612843
0.657124
0.419882
-0.907287
-0.43506
-0.280056
0.709788
-0.89
0.57
-0.05
0.19
-0.819771
0.0802431
-0.236198
0.56399
0.934061
0.159946
-0.110225
-0.783883
0.329391
0.569327
-0.117737
0.0841606
0.514607
0.470839
0.409217
-0.213422
0.770951
0.193129
-0.613343
-0.757481
0.83
0.34
0.75
0.2
-0.42
-0.91
0.19
0.76
-0.22
0.71
-0.33
0.06
0.48
-0.279757
0.100243
-0.278329
0.571671
-0.798329
0.364617
0.267092
-0.866075
-0.247505
-0.8631
0.0561231
-0.543877
-0.953877
0.156123
0.63
0.7
-0.36
-0.65
-0.36
-0.48
0.11
0.63
-0.51
-0.74
-0.91
-0.39
-0.09
0.43
0.73
0.27
0.35
0.67
-0.27
0.48
-0.87
0.18
-0.12
-0.22
0.48
-0.22
-0.82
-0.27
0.61
-0.33
-0.02
-0.397658
-0.657658
0.62
-0.83
0.06
0.6
-0.72
-0.71
-0.02
-0.34
0.3
0.86
-0.83
-0.21
0.77
0.91
-0.46
0
-0.76
0.24
0.27
0.84
-0.77
-0.41
-0.34
-0.09
-0.0175547
0.0126531
-0.292313
-0.763988
-0.0340769
0.453645
0.501632
-0.348249
0.569047
0.0800197
0.270006
-0.65
-0.40473
0.31
0.87
-0.18
-0.57
0.57
0.49
0.09
0.36
-0.12
0.35
0.15
-0.17
0.36374
0.203739
0.653739
0.763739
0.836235
-0.00953832
-0.600872
0.986513
0.357107
0.474669
-0.513382
-0.636829
-0.15299
-0.811879
-0.25277
0.859455
0.243454
-0.303383
0.405287
0.745287
-0.77
0.8
-0.35
0.01
0.5
0.19
0.8
0.09
-0.36
0.71
0.0837576
-0.736243
0.243763
0.693762
-0.784238
-0.587574
0.98521
0.699548
0.775981
-0.190053
0.628658
-0.631306
0.0897591
0.678214
-0.969427
0.0477621
-1.03212
-0.273597
0.255289
0.785289
0.09
0.02
0.84
-0.39
0.29
0.59
-0.15
-0.789982
-0.00624157
-0.606237
-0.916899
0.763294
-0.777623
-0.257546
-0.83766
-0.497509
-0.0922809
0.407041
-0.667402
-0.136254
0.76558
0.14134
0.7045
0.84697
-0.319672
0.215749
0.939479
-0.559533
0.0452889
0.745289
-0.23
-0.75
-0.23
-0.11
0.91
0.260001
0.0403818
-0.499618
0.313872
-0.835067
0.721245
0.271615
0.4303
-0.84971
-0.407802
-0.767607
-0.442075
-0.634448
0.0755079
0.829212
0.714754
0.610592
-0.801506
-0.463988
1.01465
-0.966911
0.467532
0.868383
-0.754644
-0.00467975
0.89
0.23
0.13
-0.17
-0.17
0.433377
0.144139
0.916033
0.756351
0.106551
-0.367457
-0.989457
-0.22825
0.320645
0.820459
0.701296
-0.958756
0.771504
-0.435761
0.332765
-0.549455
-0.318165
0.2999
-0.29408
-0.107002
0.215915
0.37506
-0.85721
0.95515
-0.704699
0.58
0.62
0.51
0.89
-0.27
-0.76477
0.0459802
0.296507
-0.487446
0.840558
-0.541211
0.860048
-0.990096
0.981807
-0.378197
-0.27909
-0.938071
0.371664
0.273811
-0.239728
-0.224524
-0.274585
-0.227147
-0.744552
-0.423706
0.0459924
-0.787557
0.0112272
-0.47076
-0.51473
-0.39
-0.89
-0.3
0.65
-0.609999
-0.454473
0.0963501
0.196194
-0.491351
0.338876
-0.0200797
-0.499101
0.400275
-0.369692
-0.176832
-0.977514
0.799917
0.572819
0.820826
-0.418373
-0.828855
0.63948
0.594518
0.303591
-0.103838
-0.953241
0.348837
1.03816
-0.696677
-0.22473
-0.92
-0.15
-0.17
-0.51
-0.0193032
-0.363578
-0.463621
-0.950683
0.168312
0.367495
0.740392
-0.289751
-0.939816
0.150158
-0.967919
-0.308466
-0.796441
-0.618706
-0.172883
0.0924491
0.0644402
0.168129
0.84399
-0.939389
-0.399153
-0.245361
-0.974513
-0.452439
0.214547
0.70527
0.55
0.1
-0.79
0.938784
0.342674
0.213768
0.370028
-0.780683
-0.520844
0.390354
0.700306
0.830138
-0.770017
-0.88006
-0.0480024
0.570467
0.0034862
0.760442
0.315811
0.881587
-0.453732
0.477866
-0.274493
-0.658045
0.321867
-0.302358
-0.263012
-0.497962
-0.713948
0.895271
-0.12
0.56
0.16
-0.171216
0.885868
-0.839914
-0.78183
-0.410805
0.468779
0.960248
-0.659937
-0.140516
0.239763
-0.120111
-0.448094
-0.869253
0.761792
1.0368
-0.874273
-0.529409
0.508228
-0.273251
-0.777303
-0.755298
-0.916969
-0.294636
-0.879637
-0.735287
-0.927963
-0.624729
0.63
-0.17
-0.76
-1.00121
0.935923
0.250981
0.49889
-0.441893
-0.112016
-0.1509
-0.203187
-0.541988
0.665901
0.593081
0.0238794
0.863567
0.27461
0.652581
-0.131808
-0.457794
0.0527692
-0.360312
0.531949
-0.810844
-0.128443
-0.533224
-0.295143
-0.361031
0.253377
0.165271
0.81
-0.46
0.643068
-0.288158
-0.185127
0.371373
0.444081
-0.980947
-0.115427
-0.530594
0.865029
0.843514
0.836405
0.909327
0.308053
-0.902042
-0.413402
0.186246
0.0468069
0.311717
0.562926
0.602018
-1.00264
0.221684
-0.943782
-0.863675
-0.403979
-0.602823
0.600878
-0.724359
0.27
0.33
-0.716946
0.261846
0.595741
0.931142
-0.568128
0.774321
0.239254
-0.412665
-0.623527
-0.0689469
-0.707729
-0.0872593
-0.651373
0.288396
-0.0296596
0.982671
0.723243
0.671493
0.0485942
-0.23039
0.781143
-0.943434
-0.508263
-0.423579
-0.841473
0.15255
-0.0953307
0.105641
0.2
-0.540015
0.323056
0.668951
0.859563
0.460306
0.177445
-0.211138
0.511819
-0.0616284
0.0271414
-0.1617
-0.605164
0.689126
0.790157
0.0954267
0.0757231
0.368765
0.485486
-0.552475
-0.969516
0.332822
-0.621457
0.359022
0.231094
-0.196743
0.860584
-0.610176
-0.1314
0.925271
-0.740015
0.110264
0.524933
-0.360677
-0.675223
0.882721
-0.15411
0.5574
-0.579372
-0.560989
-0.544115
0.554796
-0.00428805
0.287841
-0.561909
0.0309383
-0.469856
0.547255
-0.0308895
0.701015
0.792861
0.844398
-1.05813
0.847881
-0.219715
0.574767
0.769491
0.497406
-0.821722
0.67527
-0.580012
0.72239
-0.569584
0.0173355
0.211308
0.937033
-0.796246
0.723159
-0.867034
-0.276008
0.675691
-0.374441
0.575471
-0.0539156
0.256127
-0.724865
0.154467
-0.0571552
0.777559
0.301301
-0.108661
-0.214048
0.31726
0.468066
0.819948
-0.755798
-0.3231
-0.615298
-0.893436
0.275268
-0.209736
0.707107
0.568669
0.659429
0.198966
0.0358082
-0.844041
-0.892367
-0.443885
0.677336
0.178667
-0.391474
0.0385001
-0.661496
-0.221499
-0.1615
0.0584997
-0.834224
0.945844
0.367019
-0.543345
-0.277112
0.837255
0.565874
-0.143312
-0.506856
-0.747908
-0.974708
-0.214732
0.0352678
-0.404324
0.856729
-0.0464323
0.0182746
-0.242061
0.5493
-0.978186
1.0188
-0.772527
-0.462374
0.639087
0.968614
-0.771494
-0.521496
0.618504
0.1485
0.988504
0.164958
-0.433054
-0.612943
-1.02092
0.616447
-0.34931
0.171909
-1.01168
-0.131514
0.0627742
-0.854759
-0.354732
-0.244732
-0.478224
0.0976056
-0.87922
0.424406
0.696627
0.283229
0.958601
-0.77115
0.10634
0.586252
0.569527
0.699507
0.218914
0.238596
-0.761413
-0.421413
0.586593
0.885008
1.00774
0.981988
0.0952226
-0.850085
-1.01463
-0.60384
0.419499
0.768474
-0.588863
0.834617
-0.244732
-0.304732
0.194849
-0.575831
-0.827331
-0.36716
0.417205
0.915264
0.0404422
-0.0682225
-0.513034
0.417021
-0.0118466
-0.570412
-0.430863
0.599097
-0.430904
-0.460886
0.687124
-0.494565
0.101264
-0.815216
0.262974
0.525225
-0.746837
-0.205396
0.759429
-0.00244858
0.102841
-0.775385
0.835268
-0.814732
-0.393047
0.974489
-0.328182
0.536983
-0.591409
0.616102
-0.39937
-0.4868
0.0799964
-0.58967
0.870649
0.628181
-0.750764
-0.330763
-0.71082
0.0471706
0.855553
-0.0262095
0.767504
0.114285
-0.0167498
-0.637917
-0.125524
-0.0636877
0.189312
-0.972284
0.458547
-0.332958
0.835268
0.765268
0.567593
0.146896
0.0200616
-0.865143
0.0274244
-0.638184
-0.702909
-0.968671
-0.556848
0.169898
0.840323
-0.393972
-0.963999
-0.404112
0.825831
-0.904169
-0.274533
-0.0161491
-0.234613
0.728837
0.480928
-0.35382
0.246201
-0.926844
0.932421
-0.578024
-0.908495
0.545288
0.78
-0.38
-0.366759
0.00976847
0.326976
0.183245
-0.122204
0.968392
0.963621
0.461006
0.358273
-0.0712307
0.137921
0.676553
0.876987
-0.18281
0.717191
-0.572961
-0.306322
-0.306531
0.76585
-0.822572
0.46228
-0.5842
-0.310715
-0.903689
0.212394
0.603223
0.959367
0.945268
0.1
-0.88
0.724234
0.757895
0.442572
0.444311
-0.408076
0.998324
-0.310211
0.907427
-0.855476
-0.961849
-0.441646
-0.241494
-0.221141
-0.341118
0.598428
-0.924399
-0.278459
0.154733
-0.825607
-0.355924
-0.717504
-1.01579
-0.152406
0.456121
0.627358
-0.434611
-0.924252
-0.984732
-0.13
-0.95
-0.787503
0.693287
0.970116
0.448582
-0.91684
-0.674472
0.529299
-0.580443
0.600111
0.275926
-0.00425425
0.260331
-0.129665
-0.552552
0.732917
0.860484
-0.445861
-0.91285
-0.694193
-0.422964
-0.978978
-0.102519
-0.412424
-0.816117
0.731879
-0.50658
0.290042
0.58
0.5
-0.83
-0.829722
0.0606767
-0.688647
0.225638
-0.481917
-0.4803
-0.270015
0.589293
-0.632953
-0.413109
0.287687
0.17841
-0.228412
-0.333269
-0.0209238
0.83334
-0.682716
0.231543
0.306199
-0.189753
0.00681922
0.77679
-0.403211
-0.60316
0.959731
-0.38
-0.34
-0.97
-0.24
-0.67
-0.46
-0.769722
-0.629352
-0.809309
0.812097
0.766472
-0.280199
0.461265
-0.707073
0.469558
0.504923
-0.481295
0.358103
0.155351
-0.174935
0.804617
-0.684927
-0.914954
0.885045
-0.464961
-0.864782
-0.59
-0.47
0.09
0.02
-0.9
-0.16
0.07
0.26
-0.37
-0.69
-0.01
0.62
-0.39
0.860648
-0.909352
-0.367353
-0.567353
-0.797353
0.176285
0.057321
0.625863
-0.794524
-0.707219
0.54
-0.21
0.64
-0.18
-0.08
0.18
-0.06
-0.99
0.93
-0.11
-0.8
0.88
-0.59
0.22
0.23
-0.9
0.57
-0.01
0.73
-0.52
-0.42
0.36
-0.1
-0.07
-0.58
0.01
-0.05
-0.93
0.11
-0.1
-1
-0.8
-0.27
0.15
-0.82
0.590025
0.0200251
0.32
-0.65
0.4
-0.02
0.77
0.53
0.25
0.51
-0.58
-0.89
0.88
0.9
0.27
-0.31
-0.43
0.35
0.52
0.6
0.67
0.98
-0.75
0.93
0.3
-0.54
0.164042
0.0540496
0.484096
-0.255487
-0.284348
0.735679
0.454456
0.77906
0.765768
-0.549319
-0.856138
0.837086
0.0802091
0.07
-0.59
-0.02
-0.04
0.98
0.26
-0.26
0.07
-0.63
0.41
-0.64
-0.75
-0.660532
0.719468
-0.540532
0.819468
-0.706483
0.143642
-0.520866
-0.506417
0.765083
-0.25392
0.31458
-0.52777
-0.0872545
-0.632065
-0.409469
0.231378
-0.265135
-0.0973592
0.872859
-0.537141
-0.18
-0.21
0.54
-0.95
0.07
-0.67
0.92
0.44
0.87
-0.48
-0.0423556
-0.572356
0.0298192
0.479819
-0.422488
-0.223597
0.532191
-0.67643
-0.188813
-0.2785
0.576358
0.898614
0.61483
-0.282779
-0.783708
-0.156504
0.779818
0.0357314
-0.0210305
-0.82103
-0.14
-0.69
-0.22
0.97
0.68
-0.18
-0.74
0.0975311
0.354849
-0.165262
-0.697797
-0.278125
0.270832
0.772853
-0.33471
0.10173
-0.571901
-0.819885
0.77478
0.887203
-0.573039
0.361348
-0.873947
-0.245869
-0.674574
0.744693
0.0193791
0.362292
-0.75103
0.82897
-0.38
0.65
-0.27
0.81
-0.36
0.23972
-0.883175
0.32151
0.209439
-0.604743
-0.0654489
-0.589928
-0.324294
-0.773747
0.311155
-0.74307
0.131236
-1.09823
0.0128638
0.358986
0.595728
0.121606
0.554804
0.643782
-0.255216
-0.506533
-0.328397
0.693918
-0.459644
0.780273
0.96
-0.99
0.13
0.75
-0.400087
-0.0203876
0.651279
0.185007
0.0832019
-0.166756
0.639392
0.239536
0.261147
0.497311
-0.289671
-1.06419
-0.790807
-0.381376
-0.96646
0.748368
0.281553
-0.909108
0.774753
0.703733
0.864562
-0.0299729
0.400954
-0.382094
-0.669555
-0.619718
0.13
-0.13
0.94
-0.53
-0.160087
-0.603926
-0.0909883
-0.890906
-0.994708
0.134488
-0.46588
-0.796113
-0.781453
0.162341
0.485819
0.547476
0.0493981
-0.67262
0.751836
-0.321267
0.601696
-0.365311
-0.71285
-0.52226
0.0922689
-0.113467
0.657583
0.00389237
-0.399308
0.32053
0.31
-0.64
-0.77
-0.670087
-0.890368
-0.991943
0.819343
-0.38358
-1.10817
-1.09338
0.654223
-0.571941
0.667199
0.326863
-0.0975602
0.113641
0.74311
-0.620925
-0.316283
0.0212001
0.519509
0.469637
-0.682668
0.0757345
0.695088
-0.92566
-0.0760759
0.558205
0.625529
-1.00456
-0.19
0.01
0.22
0.499913
-0.780878
-0.870116
-0.779479
-0.403242
-0.168672
0.582074
-0.60528
-0.222719
0.0443911
-0.408922
0.741274
0.629216
-0.984733
0.689958
0.547072
-0.665143
-0.320025
0.0633673
-0.956671
-1.05428
-0.381473
0.119355
0.0865561
0.897872
-0.824966
0.0347243
-0.53
-0.64
-0.9
0.478893
-0.633137
-0.0158806
0.380172
-0.963635
0.142853
0.2566
-0.851411
-0.534221
-0.00833263
-0.659018
0.754161
0.702912
-0.0309164
-0.0617783
-0.384759
-0.62201
-1.00441
0.0712067
0.158299
-0.697539
0.523049
0.209561
0.664042
-0.518927
-0.654305
0.495051
0.19
-0.77
-0.0700873
-0.731108
-0.700896
0.56951
0.396843
0.338986
-0.235563
-0.667297
0.586915
-0.523971
0.523659
-0.476363
0.0910536
-0.195935
-0.974993
0.602182
0.177435
-0.0178472
0.664228
0.690182
0.221502
0.713387
0.116274
-0.223596
0.163371
-0.570262
-0.774608
0.425051
0.82
-0.19
0.0799127
0.77887
-0.478404
-0.672153
0.752412
-0.710266
0.396692
-0.716743
0.655887
-0.621807
0.704706
0.539785
0.39399
0.645989
0.582561
-0.470078
0.752641
-0.594024
0.0801105
-0.0966858
-0.301796
0.755479
-0.337381
-0.163295
-0.921482
0.0284106
0.195198
0.925051
-0.98
-0.8
0.87925
-0.463564
-0.190538
-0.127116
-0.384163
-0.747747
-0.315056
0.422485
0.478379
-0.533475
-0.447104
0.803908
-0.241244
0.190823
-0.866256
0.738689
-0.893282
-0.037558
-0.120509
0.358314
-0.268753
-0.118564
0.206032
0.788654
-0.246794
0.694542
-0.124212
-0.264348
0.12
-0.18
-0.430529
0.465983
-0.0768603
0.756903
-0.922597
-0.52002
-0.0295108
-0.561939
-0.629454
0.218406
1.10038
-0.676869
0.202573
-0.780161
-0.69944
1.05351
-0.255147
-0.101841
-0.135586
0.951543
-0.765709
0.067802
0.592121
-0.965654
0.193194
-0.115253
0.921868
0.261819
0.58
0.210134
-0.761046
-0.617837
0.535871
0.773146
-0.238874
-0.499532
-0.619084
-0.241655
0.699508
0.315225
-0.347041
-0.918305
0.177556
0.0172693
0.270705
0.175873
0.486019
-0.201365
0.109584
0.4347
0.594876
0.407398
-0.648243
-0.242727
-0.283168
0.359993
-0.682041
0.927711
-0.369866
0.520342
0.240314
0.0452385
-0.182497
-0.941141
0.422949
-0.38213
0.740777
-0.371743
0.680053
-0.682625
-0.114458
0.625667
1.0114
0.142855
-0.505603
0.326083
0.147379
0.942418
-0.866355
-0.836354
-0.713291
-0.507202
-0.0655846
-0.200614
0.19689
1.00931
0.138426
-0.661614
0.0296849
-0.240082
0.691492
0.371163
-0.240063
0.220238
0.41906
0.200493
-0.474177
0.0581987
-0.921112
-0.892399
1.02798
-0.519625
0.027999
-0.459892
-0.126402
0.779147
-0.725915
0.265322
-0.524142
-0.899727
-0.216655
-0.812286
-0.668782
0.0749388
0.389203
-0.580972
-0.191129
0.988835
-0.401941
-0.678061
0.978139
0.124856
-0.416953
0.722373
-0.943586
0.403544
0.89854
-0.444888
0.577866
0.185892
0.100151
0.290705
-0.587319
-0.485262
0.0847324
0.366477
0.835955
0.32513
-0.499193
0.664145
0.821278
-0.443705
0.442698
0.83006
-0.844983
-0.441696
0.739746
0.0997464
0.50737
-0.65216
0.218932
0.734591
0.750936
-0.563297
-0.593426
-0.108498
-0.798422
0.989585
0.616288
0.833933
0.171999
0.853439
-0.443438
-0.401544
-0.381233
0.352899
0.611787
0.342623
0.663107
0.236245
-0.951304
0.540857
-0.584923
-0.270119
-0.197077
-0.930685
-0.160849
0.469151
-0.0735337
0.686938
0.145795
-0.859241
-0.32014
-0.920705
0.79958
-0.693448
0.165049
-0.00667861
0.868067
1.08703
1.01414
0.202527
-0.734594
1.13649
-0.172307
0.254243
0.969712
0.160442
0.836438
-0.674443
0.669071
0.442316
0.287909
-0.874295
-0.017231
-0.940967
0.340618
0.180618
0.316567
-0.3754
-0.648459
-0.383525
-0.259738
-0.228787
0.377635
-0.462792
0.658304
-0.852001
-0.316142
0.0741969
0.882871
0.992293
-0.243776
0.789609
-0.0473934
0.907448
-0.709975
0.852068
0.378318
0.64406
-0.989613
-0.623369
0.560554
-0.542139
0.357503
-0.340927
-0.330337
-0.630337
-0.433457
0.21478
0.0496531
-0.0944845
0.703563
-0.433936
0.770818
0.900812
-0.215376
-0.106717
1.01474
0.155667
-0.414357
0.95072
0.554968
0.86609
-0.470643
-0.659083
-0.957793
0.531619
0.94642
-0.709236
0.19814
-0.952521
0.428742
-0.92788
-0.466849
-0.468009
-0.900337
0.119663
0.188388
0.392582
0.413561
0.467891
-0.70385
0.556669
0.0189174
-0.368274
-0.436415
0.167558
-0.35569
-0.104571
0.668049
1.00804
0.72772
0.207729
-0.414319
0.200852
0.36079
0.825813
-0.90253
-0.465002
-0.307996
-0.862993
0.743962
0.52526
0.681328
0.331185
0.4
0.74
-0.832465
-0.108607
0.552588
-0.765172
0.622817
0.394274
-0.167657
-0.426691
-0.772896
-0.908762
0.483642
-0.10124
-0.204875
-0.198048
0.80196
-0.204238
-0.151553
-0.749386
0.207074
-0.764435
-0.807245
-0.507157
-0.360029
0.770683
0.38155
0.19444
-0.842903
-0.720183
0.9
0.48
0.386919
-0.929297
0.946826
-0.205459
-0.382824
-0.618025
-0.13775
1.03411
-0.252581
-0.118237
0.131405
1.05936
0.723602
0.739424
-0.799524
-0.278038
0.433983
-0.77779
-0.312487
-0.455703
0.121298
-0.279342
0.792565
0.547783
-0.0314458
-0.820193
0.968804
0.107445
0.51
0.63
0.770491
0.130809
0.699531
0.598685
0.304484
-0.548808
-0.867423
0.431661
0.387591
-0.151053
-0.447365
0.156623
0.331315
0.165184
-0.471598
0.7715
-0.165507
0.986844
-0.368453
-0.706422
-0.761422
-0.0184239
-0.157586
0.258187
0.608045
-0.126316
-0.322747
0.89
0.92
-0.13
0.230208
-0.829654
-0.671649
0.649289
-0.45215
-0.472945
-0.793119
0.366257
-0.560232
-0.743129
0.2462
-0.356659
0.153913
-0.492768
-0.562781
0.981688
0.621736
0.912015
-0.55109
-0.431791
-0.260184
0.134776
0.12028
-0.00624722
-0.322938
-0.322214
0.0372289
-0.51
0.41
-0.7
0.33
-0.0797915
-0.119787
-0.309787
-0.319602
-0.459152
-0.0848946
0.939724
0.268197
0.71079
-0.0610339
-0.347721
0.518841
-0.579369
0.514233
-0.183553
-0.202011
-0.988921
-0.479681
0.410804
-0.411675
-0.89
-0.79
0.25
-0.13
0.97
-0.92
0.95
0.26
0.63
0.89
0.86
-0.92
-0.97
-0.299787
0.330213
0.710251
-0.869749
-0.919749
-0.769747
0.660259
0.550496
-0.94951
0.210439
-0.62
0.49
0.13
0.98
-0.18
-0.13
0.76
-0.8
-0.47
-0.85
0.02
-0.22
0.57
0.78
0.59
0.76
-0.78
0.92
-0.41
0.03
0.09
-0.39
0.94
0.41
0.28
0.41
0.24
-0.75
0.38
0.06
-0.65
-0.11
-0.69
0.18
-0.01
-0.275581
-0.805581
0.15
0.03
-0.62
-0.82
-0.75
-0.03
0.26
-0.94
0.01
-0.6
0.68
0.46
-0.45
0.67
-0.5
-0.91
0.17
-0.24
0.36
0.42
0.03
0.66
-0.82
0.42
0.46582
-0.974714
-0.116371
0.468996
0.483944
0.198206
0.63963
-0.921168
0.384547
-0.38611
0.191403
0.653736
0.818263
-0.71
-0.59
0.95
0.54
-0.41
-0.75
-0.52
0.95
0.19
0.86
0.84
-0.05
-0.972898
0.397102
-0.692898
-0.682898
0.740229
-0.042479
0.332414
0.0615494
-0.420771
0.678632
-1.05685
0.883445
-0.610568
-0.476386
-0.667959
0.139318
1.03602
-0.801856
0.639435
-0.830565
-0.57
0.27
0.05
0.35
0.37
0.04
0.35
-0.58
-0.25
-0.77
-0.122694
-0.192695
0.0184635
0.938464
0.314342
-0.941932
-0.10291
-0.508677
0.863648
0.692855
-0.461702
-0.110534
-0.654597
0.272513
0.559624
0.0350349
1.00353
0.996943
-0.276008
-0.676007
0.68
0.09
-0.41
0.43
0.03
-0.74
0.85
0.361318
-0.212057
-0.864644
0.14433
-0.207702
-0.116209
0.918401
-0.639175
0.266517
-0.29987
0.870832
0.432301
-0.523977
-0.578973
-1.01781
-0.361922
-0.0956413
-0.143519
0.480724
0.628482
-0.691807
0.693993
-0.626007
-0.51
0.54
-0.12
0.44
-0.15
0.29845
-0.629748
-0.241252
0.156216
-0.942471
0.401192
0.676935
-0.00829471
0.461039
-0.309501
0.866273
0.743861
-1.05098
-0.552697
0.282174
-1.09585
0.693247
-0.387909
-1.04397
-0.931098
0.698822
-0.660911
0.874167
-0.895861
-0.414635
0.94
-0.64
-0.04
0.35
0.759249
-0.954931
0.121444
-0.0651363
-0.350964
0.31936
0.429147
-0.10152
0.210322
-0.698567
-0.0874711
-0.7323
-0.812764
-0.866785
0.855749
0.747768
0.477952
-0.340307
0.0358216
-0.370917
-0.0227414
-0.157731
-0.588991
-0.898264
0.226837
-0.0712056
0.44
0.43
-0.54
-0.95
-0.370752
-0.426947
-0.865747
0.939018
0.892616
0.553195
0.288743
0.0909665
-0.736975
-0.0182193
-0.288012
-0.461076
-0.801259
0.264807
0.0217039
-0.43493
0.241957
0.161943
0.898933
0.712659
0.328312
0.503482
-0.187473
-0.106019
-0.511037
-0.0712296
-0.29
-0.94
-0.24
0.629249
-0.0423014
-0.257682
0.41133
-0.276737
-0.478468
-0.641632
0.172246
0.135035
-0.603456
0.175262
-0.532636
-0.216564
-0.663976
-0.530893
-0.872932
-0.0480582
0.529283
0.681828
0.518325
-0.93974
0.7813
0.418689
-0.371227
0.742267
0.27468
0.85877
-0.08
-0.11
0.8
-0.250752
-0.129123
0.425936
-0.714405
0.0821221
-0.69784
0.164159
0.298429
-0.0626136
-0.551811
0.901677
0.275123
-0.319716
0.612629
-0.519007
0.858052
0.0859568
-1.03101
-0.745119
-0.932715
0.691307
0.183672
-0.664615
0.693142
0.747826
0.439864
0.0487786
-0.59
0.19
0.15
0.569126
0.0171341
0.0890807
-0.518233
-0.729657
0.175974
0.717563
0.92127
-0.744356
0.848803
0.584995
-0.806081
-0.388616
-0.0852613
0.286677
-0.018691
-0.79973
0.120573
-0.19715
-0.781797
0.815239
0.0938776
0.309569
-0.441519
0.119863
0.244489
-0.148551
-0.65
0.85
0.719249
-0.480874
-0.854575
-0.420772
-0.0704028
-0.479225
-0.775939
-0.333348
0.651146
0.341047
0.341278
0.497406
-0.204268
-0.780881
0.905967
0.0826586
0.198655
-0.31283
0.0742506
-0.399355
0.17843
0.286257
-0.51395
0.258315
0.584737
0.16422
-0.497148
0.83145
-0.92
-0.53
-0.370752
-0.171446
0.934325
0.835053
0.624985
0.582
-0.0027681
0.772974
-0.132455
-0.779333
-0.703555
-0.151326
-0.759811
0.996035
-0.93811
0.0218201
0.042113
-0.089118
-0.9117
0.370104
0.78616
0.173092
-0.521755
0.484931
0.698873
0.539161
-0.566587
-0.241816
0.58
-0.7
-0.742053
0.075097
-0.418819
0.860014
-0.384343
0.354024
0.318208
-0.563665
-0.609936
0.285625
-0.276124
-0.808555
0.382025
0.799246
-0.76718
0.312592
-0.283917
-0.0983546
0.699958
0.0319847
0.402957
0.55485
-0.773767
-0.560662
0.577547
0.476179
0.376737
-0.460915
0.03
0.47
0.856876
0.239037
-0.697118
0.66485
-0.391657
0.0683898
0.437956
0.756426
0.269658
-0.863705
-0.638824
0.67725
0.542524
-0.160311
-0.401011
0.45153
-0.11857
0.55044
0.173
-0.104348
0.471817
-0.194227
0.262768
0.580268
0.457062
-0.876343
-0.748392
-0.696812
0.23
-0.541822
0.689769
-0.345901
-0.990534
0.67084
-0.196781
-0.0955612
0.724418
-0.0567554
-0.454493
0.210807
0.677486
-0.470142
0.0913771
0.853238
-0.342815
0.684397
-0.45753
0.833349
-0.28323
-0.0972532
0.160996
0.825263
-0.097169
0.930433
-0.392632
-0.718521
-0.889867
0.835804
0.848178
0.207001
-0.962272
0.228908
0.126045
-0.334443
-0.503691
0.109575
0.918726
-0.820727
-0.874723
-0.914046
0.5958
0.228445
0.490443
-0.734639
-0.597079
0.102713
0.841914
-0.85317
0.190335
0.326465
0.635523
0.719851
0.261369
-0.399469
1.04896
-0.843348
0.743624
0.315568
-0.749
0.575134
0.700611
0.401822
0.422924
0.490398
-0.699631
0.548412
-0.652027
-0.248274
0.143456
-0.126999
0.418848
-1.06146
0.588534
-0.368623
-0.0304798
0.25013
-0.133687
0.476667
0.22826
0.68537
1.01902
0.299015
-0.355211
1.09097
0.966174
-0.0410295
-0.483565
0.896011
-0.872928
0.595074
-0.826224
0.570332
-0.869405
0.0397145
-0.721006
0.993184
0.0556467
0.334841
0.156766
-0.265509
0.431663
-0.268336
0.161792
0.632885
-0.0471092
0.34344
-0.760162
-0.477958
-0.00936577
0.887475
0.0129847
0.983051
0.312927
-0.146639
-0.742813
0.052966
-0.573986
0.0660083
-0.0618678
0.397963
-0.218953
-0.132085
0.0604482
-0.709566
0.418114
0.356277
0.548976
0.29136
-0.261571
0.141783
-0.968762
-0.539059
-0.229031
0.552061
-0.2582
-0.570658
-0.463028
0.149267
0.257305
0.245014
-0.850153
0.371624
0.0151441
-0.064056
-0.06697
-0.277856
-0.844029
-0.894034
0.589961
-0.319123
-0.541326
0.181015
0.912965
-0.210975
0.117342
-1.00967
0.152456
-0.423245
-0.586407
0.0975223
0.108878
-0.922464
0.080501
-0.230033
-0.371294
0.647395
-0.916572
-0.506603
0.685793
0.611775
-0.23507
0.71107
-0.61857
0.0764799
-0.14575
0.490969
0.435692
1.00569
0.101482
-0.519783
-0.0791903
-0.430245
-0.355315
-0.388507
-0.792859
0.587196
-0.996135
0.848186
0.573864
0.432272
0.827881
-0.281244
-0.363136
-0.562308
-0.895245
0.846209
0.181966
0.827744
0.6646
0.86735
0.710754
0.133229
0.556232
0.404328
0.606205
1.02949
-0.265614
0.484382
0.539082
0.623751
0.316759
-0.898628
-0.746247
-0.326249
0.574249
-0.897476
-0.258193
0.616509
-0.343686
0.287119
-0.788755
-0.67617
0.594463
0.902916
0.276036
-0.434653
0.234646
-0.633804
-0.456585
-0.900815
0.519906
-0.345345
-0.742059
1.12579
-0.695061
-0.242009
-0.235614
-0.0456182
-0.633658
-0.674753
-0.571072
0.652436
-0.671875
-0.760538
0.148467
-0.723256
-0.269633
0.707295
-0.0216249
0.617
0.495339
0.82534
0.0707338
-0.489265
0.701715
-0.534859
0.784628
0.56231
0.478297
0.736586
0.496891
0.93485
-0.222372
0.11099
0.336889
0.296791
0.12
-0.31
0.0169057
0.173789
0.111137
0.0620148
0.148291
0.78861
-0.670792
0.193518
0.736124
-0.538973
0.14503
-0.125628
-0.51494
-0.736791
-0.846727
-0.253103
0.273212
-0.450087
-0.836142
-0.147909
0.271056
0.89291
0.428514
-0.341368
0.96302
0.979866
0.284459
-0.888057
-0.36
0.78
-0.0584249
0.783748
0.346375
0.505141
-0.388866
0.21034
0.448319
1.02322
0.374185
0.429151
-0.0315998
-0.838616
-0.32591
0.577109
-0.100851
-0.248137
-0.243872
-0.8533
-0.0784626
-0.83831
0.176052
0.212596
-0.737957
-0.0290593
0.177325
-0.262518
0.78845
-0.701363
0.33
-0.03
0.415855
-0.52981
0.695239
0.314445
-0.707024
0.738717
0.216291
0.774737
-0.371538
-0.695665
0.0642916
0.525059
-0.214739
0.257585
-0.675271
0.745351
-0.640076
-0.302718
0.651487
-0.735027
0.311
-0.0182542
0.41744
-0.749571
-0.40077
0.539539
-0.145001
-0.99
0.99
-0.82
0.628823
0.102764
0.909448
0.263799
0.469518
-0.498894
-0.384858
0.419493
-0.217503
-0.263708
0.220129
0.453488
-0.152573
-0.393298
-0.588546
0.787783
0.270267
0.780145
0.174067
0.165596
0.659455
0.0504481
0.304796
-0.435516
0.55011
0.24
0.67
-0.4
-0.93
-0.73
-0.37
0.958823
-0.852864
0.473697
0.275502
0.82482
0.0909888
-0.342709
0.261098
-0.348374
0.281722
-0.331946
-0.18574
-0.787437
0.131279
0.268732
-0.215317
0.101572
-0.207839
-0.410072
0.458551
0.97
0.62
0.69
-0.27
0.37
0.22
0.58
0.76
-0.6
-0.86
0.98
-0.49
0.24
0.0471365
-0.612864
-0.948002
-0.998002
-0.578002
0.564849
0.0360257
0.601292
-0.47715
0.146371
-0.534953
0.705047
-0.484953
0.0450476
0.75
-0.73
-0.95
-0.22
-0.23
0.7
0.02
0.18
-0.12
0.9
0.26
0.88
-0.16
0.46
0.23
-0.65
0.06
-0.92
0.29
-0.46
-0.96
-0.41
0.74
0.36
0.21
-0.13
0.56
-0.29
0.17
0.02
-0.93
-0.530012
0.189988
0.55
0.74
0.63
-0.46
-0.32
-0.57
-0.82
-0.77
0.41
-0.21
-0.61
-0.1
0.79
-0.02
0.81
0.67
0.49
0.3
0.55
-0.49
-0.5
0.13
0.81
0.51
0.669897
-0.880209
-0.560104
-0.74034
-0.522665
0.60405
0.185442
0.415861
-0.421208
-0.0299972
0.688269
0.0479305
-0.142435
0.27
-0.4
0.89
0.28
0.75
0.82
-0.83
0.92
-0.58
-0.81
-0.59
-0.28
-0.983562
0.966438
0.646438
0.766438
-0.43379
-0.763909
-0.704371
0.83231
-0.551484
0.0194366
-0.576036
-0.114666
-1.01081
0.464065
0.399905
0.671392
0.702505
-0.950581
-0.581906
0.448094
-0.18
-0.2
0.9
0.66
-0.08
-1
-0.1
-0.34
-0.64
0.41
-0.813431
0.776569
-0.261918
-0.161918
0.326281
0.357734
-0.552734
-0.608117
-0.803466
-0.945048
0.563817
-1.01714
-0.906779
-0.719404
0.473311
-0.484924
-0.285328
0.311119
-0.947263
-0.00726387
-0.08
-0.51
0.09
-0.31
0.15
-0.75
0.17
-0.89
-0.00324073
-0.0735925
-0.16662
0.33526
-0.24934
-0.378204
-0.447115
0.942007
-0.919885
0.904217
-0.993602
0.323975
-0.0297688
0.642051
-0.0484349
-0.376029
0.329862
-0.751523
-0.210121
-0.721217
0.312737
-0.277263
-0.67
-0.8
-0.32
-0.73
-0.36
-0.569999
0.650039
0.916933
-0.156991
0.278567
0.161088
0.976211
0.161216
-0.188861
0.469146
0.708921
-0.611379
-0.499626
0.711997
-0.204839
-0.44743
0.0343844
-0.743097
0.40642
-0.610012
0.536314
-0.539342
-0.25166
0.199053
-0.570927
-0.72
-0.59
-0.3
-0.89
-0.0899999
0.846401
0.953024
-0.756042
0.595473
0.450561
0.0615837
0.201546
0.65917
0.471429
0.591415
0.0611948
-0.671832
0.673523
0.90377
-0.45649
0.777898
-0.101021
0.728239
-0.534736
-0.653251
-0.130566
-0.584112
-0.465997
0.132087
0.422108
0.12
0.37
-0.63
-0.99
-0.94
0.314628
0.831845
0.966935
0.181344
-0.492344
-0.394512
0.991816
-0.00932327
0.65032
0.480053
-0.490083
1.00325
-0.831251
0.898599
0.711004
0.321617
-0.501733
-0.88409
-0.797112
0.503679
-0.311138
0.205077
0.567376
0.305736
-0.304228
0.42
0.34
-0.56
-0.24
0.200001
-0.234886
0.0956395
-0.388539
0.202618
0.711835
0.716326
0.724945
0.11462
-0.315196
1.02947
-0.210776
-0.771526
-0.921454
0.0946719
-0.781174
0.844432
-0.491029
0.747026
-0.600144
0.437344
0.875297
0.194572
0.246478
0.476142
-0.983712
0.12
-0.93
0.1
-0.63
-0.699931
-0.73216
0.875427
-0.198151
0.102016
-0.0995289
0.453819
-0.236063
-0.727468
-0.259008
0.789138
0.271287
-0.947012
-0.259658
-0.279191
0.571885
0.765166
0.483794
0.722242
0.826774
-0.618136
0.336614
0.611611
-0.247944
-0.81505
0.386533
-0.97
-0.91
0.41
0.911008
0.569759
-0.867161
0.11047
0.780862
0.157604
0.549715
0.139373
0.54597
0.101679
-0.618257
-0.138655
0.501057
0.511813
0.58114
-0.202124
-0.26075
-0.106935
-0.965655
0.118541
-0.54194
-0.706045
-0.0877522
0.104317
0.865129
-0.936964
-0.473913
-0.77
0.43
0.69
-0.688992
-0.563437
0.237073
-0.107965
0.0384284
-0.426115
0.323717
0.710792
0.869392
0.421374
-0.657579
0.0522832
0.132376
-0.378485
-0.168844
0.83465
0.700612
-0.0162038
0.20724
-0.175851
-0.893268
0.797392
0.533032
-0.968779
-0.358632
0.0418244
0.426087
0.24
-0.68
-0.31
-0.188934
0.727239
0.0769392
-0.513103
1.00492
-0.455765
0.302179
-0.109957
0.502793
0.564605
0.836666
0.24248
-0.308323
-0.37911
-0.18461
-0.967068
-0.426739
0.569533
-0.772163
-0.590827
0.166026
-0.338832
-0.398858
0.725502
-0.636019
0.421591
-0.773126
-0.1
0.31
-0.632998
-0.573304
0.879844
-0.392524
0.747186
-0.908533
-0.924167
0.342425
0.164057
0.299913
0.202704
-0.597816
0.634533
-0.0452283
0.284134
-0.0888353
-0.0154581
0.431891
-0.062204
-0.513852
-0.382439
0.193707
-0.779477
-0.751825
-0.438154
-0.273412
-0.0968727
0.518409
0.4
-0.66
-0.583459
0.404141
0.254049
-0.454577
0.791813
-0.30891
0.437871
0.644426
-0.985151
-0.915637
0.626492
-0.561664
-0.463629
0.744983
-0.82661
0.310667
0.603831
0.401638
0.622861
-0.0704365
0.531844
0.33966
0.0797161
-1.00151
0.174828
0.589746
0.443666
-0.431905
-0.06
0.339538
-0.757386
0.46871
0.0816559
0.341446
0.49024
0.236813
0.685813
-0.81021
-0.271522
-0.975047
0.70327
0.354137
-0.803041
0.71238
0.349015
-0.878893
-0.181796
0.132313
0.0260232
-0.979633
-0.0835772
-0.0895485
-0.0695742
0.0207859
-0.134939
0.512492
-0.405166
0.89645
0.969538
0.329538
0.859055
-0.206053
-0.656957
0.338589
0.919728
0.315405
-0.0341527
-0.383855
0.381037
-0.944728
-0.87886
-0.478278
-0.777522
-0.023894
-0.885241
-0.909741
0.130961
0.471642
-0.607166
0.247305
-0.603126
-0.395559
-0.710738
0.411607
-0.863732
-0.366866
-0.923456
0.0481043
0.866856
-0.553156
0.598476
-0.0920591
-0.515562
-0.584392
0.620293
0.699338
0.69118
0.726204
0.767148
-1.0215
0.0085096
-0.821428
-0.890888
0.369069
0.508613
-0.481365
-0.40017
-0.99336
-0.825088
-0.314734
0.193224
0.972925
-0.299349
0.633318
-0.58516
0.522205
0.89844
-0.0599997
0.537912
-0.792694
-0.500071
-0.750319
0.439243
0.926771
0.87124
-0.597492
0.0705556
0.426291
-0.361967
0.837225
-0.0130428
-1.06315
-0.113229
0.316728
0.216725
-0.542713
-0.671266
0.505549
0.0142291
-0.708693
0.421312
-0.775216
-0.657943
-0.298923
0.515825
-0.736623
-0.911553
0.16
0.848227
0.140588
-0.417168
0.0146351
0.0906164
0.285746
0.171111
0.046082
-0.594956
-0.117061
0.631713
-0.112632
-0.123157
0.656702
-0.3937
-0.393749
0.36624
0.786351
-0.272267
-0.132004
-0.504412
-0.14206
0.898707
0.944926
0.69191
0.717366
-0.573699
-0.648433
-0.261553
-0.64
0.616625
0.860671
-1.05138
-0.628684
0.496003
0.323938
0.528415
0.0856719
0.190762
-0.830035
0.823077
-0.0588611
-0.628972
0.107781
0.826338
0.36626
-0.973031
-0.211644
0.657144
0.558333
0.521181
-0.515413
-0.156643
-0.262112
-0.569582
-0.100807
-0.293803
-0.845416
-0.0215528
-0.0299998
0.7664
0.400352
-0.275536
-0.591888
0.346113
0.0886387
-0.18124
0.548594
0.881386
-0.684768
0.040897
0.257549
0.0614611
0.8988
0.0583455
0.45898
0.719128
0.291084
-0.354221
-0.308834
-0.366069
0.208261
0.361586
-0.353092
-0.252547
-0.96011
0.278483
0.768307
0.828447
0.92
0.497342
0.75936
0.217374
0.55744
-0.557707
-0.620126
0.310946
-0.229194
0.113956
-0.667767
0.422935
-0.824214
0.447361
-0.102867
-0.463447
-0.493672
0.245078
-0.0348538
-0.395744
0.915268
0.463577
0.756532
0.387501
-0.427637
-0.992356
-0.259491
-0.786589
0.391877
0.028447
0.64
0.505522
0.740101
-0.881543
0.338432
-0.229524
0.465625
-0.761104
0.705297
0.643476
0.815964
-0.518395
-0.423417
-0.0334736
-0.333621
0.214645
0.0846443
0.533718
-0.415782
-0.175147
0.410286
0.243901
-0.193218
-0.674075
0.126811
0.407171
0.501079
0.505495
-0.654634
0.61
-0.61
-0.552755
0.802297
-0.398424
-0.160513
-0.578384
0.307712
-0.859481
0.362496
-0.632885
-0.944383
-0.113545
-0.818677
0.362309
0.393061
0.16169
0.740682
0.251416
0.200122
-0.0884496
0.50097
0.780347
-0.184996
0.820729
-0.824185
0.471184
-0.139628
-0.119527
-0.700365
0.98
-0.28
0.240566
-0.869936
-0.509193
-0.0538458
0.133789
-0.233488
0.165617
-0.0183505
0.505206
-0.790926
-0.221412
0.183906
-0.814795
0.124633
-0.84642
0.762771
-0.600065
0.0297047
-1.02349
0.667306
-0.24743
0.910519
-0.200059
0.185498
-0.370452
-0.576087
-0.170807
-0.790346
0.87
-0.15
-0.860962
-0.881428
0.44934
0.219564
-0.666852
0.369125
-0.656818
-0.0880937
-0.420803
-0.762403
0.870405
-0.338898
0.36287
-0.466032
-0.500305
0.364392
0.176179
0.417788
0.623681
0.357361
0.785519
0.867163
-0.974987
0.348727
-0.528798
0.0511879
0.530872
-0.27
0.33
0.76
-0.720001
-0.820516
-0.542375
-0.375096
-0.124335
-0.605515
0.834321
-0.537193
-0.921461
0.379961
-0.969877
0.270994
0.119819
-0.649464
0.339154
-0.935652
0.667565
-0.770305
0.693269
-0.300132
0.408262
-0.203325
-0.91114
0.579026
0.868946
0.0196186
0.90975
0.31
0.1
0.06
0.28
-0.110001
0.0399994
-0.490054
-0.870576
-0.101488
0.194837
0.0725233
-0.441449
-0.0284823
-0.497863
-0.773889
-0.870518
-0.649077
-0.174857
0.0451988
0.328684
0.0330655
0.0852043
-0.0918502
-0.371377
0.19
0.57
-0.11
-0.58
-0.64
0.14
0.26
-0.67
-0.69
-0.91
0.5
0.66
0.3
-0.0400006
0.699999
-0.470004
0.409996
0.509996
-0.15208
-0.421169
-0.392097
-0.822073
-0.681727
-0.879717
0.560283
-0.329717
1.01028
-0.62
-0.68
0.1
0.76
0.26
0.41
-0.09
-0.64
0.17
0.83
0.63
0.38
1.13121
1.19728
0.169531
2.28705
0.810423
-1.29783
-3.21535
0.968029
0.785586
-0.757156
-1.09735
-0.956993
0.665193
0.966691
0.920324
-3.28189
0.478343
-1.65232
1.14452
1.36595
0.499096
1.864
0.474733
1.52901
-0.448016
2.58802
-1.03552
-1.18083
0.442015
-2.97958
0.450952
1.42624
1.19312
-6.24999
-1.17775
0.293046
-3.17299
-0.0923844
-5.53214
2.68801
-5.48222
-0.573981
-0.318076
-4.68702
3.54319
-0.821333
-2.88322
-5.48521
